{"learner":{"attributes":{"scikit_learn":"{\"_estimator_type\": \"classifier\"}"},"feature_names":["jw_dist_forename","set_dist_forename","jw_dist_city","set_dist_city","jw_dist_state","set_dist_state"],"feature_types":["float","float","float","float","float","float"],"gradient_booster":{"model":{"gbtree_model_param":{"num_parallel_tree":"1","num_trees":"100"},"iteration_indptr":[0,1,2,3,4,5,6,7,8,9,10,11,12,13,14,15,16,17,18,19,20,21,22,23,24,25,26,27,28,29,30,31,32,33,34,35,36,37,38,39,40,41,42,43,44,45,46,47,48,49,50,51,52,53,54,55,56,57,58,59,60,61,62,63,64,65,66,67,68,69,70,71,72,73,74,75,76,77,78,79,80,81,82,83,84,85,86,87,88,89,90,91,92,93,94,95,96,97,98,99,100],"tree_info":[0,0,0,0,0,0,0,0,0,0,0,0,0,0,0,0,0,0,0,0,0,0,0,0,0,0,0,0,0,0,0,0,0,0,0,0,0,0,0,0,0,0,0,0,0,0,0,0,0,0,0,0,0,0,0,0,0,0,0,0,0,0,0,0,0,0,0,0,0,0,0,0,0,0,0,0,0,0,0,0,0,0,0,0,0,0,0,0,0,0,0,0,0,0,0,0,0,0,0,0],"trees":[{"base_weights":[-3.223722E-2,-2.641582E-1,3.2120165E-1],"categories":[],"categories_nodes":[],"categories_segments":[],"categories_sizes":[],"default_left":[0,0,0],"id":0,"left_children":[1,-1,-1],"loss_changes":[9.661334E0,0E0,0E0],"parents":[2147483647,0,0],"right_children":[2,-1,-1],"split_conditions":[8.333333E-1,-2.641582E-1,3.2120165E-1],"split_indices":[0,0,0],"split_type":[0,0,0],"sum_hessian":[8.3188305E0,4.816165E0,3.5026655E0],"tree_param":{"num_deleted":"0","num_feature":"6","num_nodes":"3","size_leaf_vector":"1"}},{"base_weights":[-2.9856568E-2,-2.2047977E-1,2.2592874E-1],"categories":[],"categories_nodes":[],"categories_segments":[],"categories_sizes":[],"default_left":[0,0,0],"id":1,"left_children":[1,-1,-1],"loss_changes":[5.6077185E0,0E0,0E0],"parents":[2147483647,0,0],"right_children":[2,-1,-1],"split_conditions":[8.333333E-1,-2.2047977E-1,2.2592874E-1],"split_indices":[0,0,0],"split_type":[0,0,0],"sum_hessian":[8.155561E0,4.323463E0,3.832098E0],"tree_param":{"num_deleted":"0","num_feature":"6","num_nodes":"3","size_leaf_vector":"1"}},{"base_weights":[-2.8563837E-2,-1.8540972E-1,1.6658668E-1],"categories":[],"categories_nodes":[],"categories_segments":[],"categories_sizes":[],"default_left":[0,0,0],"id":2,"left_children":[1,-1,-1],"loss_changes":[3.383073E0,0E0,0E0],"parents":[2147483647,0,0],"right_children":[2,-1,-1],"split_conditions":[8.333333E-1,-1.8540972E-1,1.6658668E-1],"split_indices":[0,0,0],"split_type":[0,0,0],"sum_hessian":[7.832698E0,3.8684735E0,3.964224E0],"tree_param":{"num_deleted":"0","num_feature":"6","num_nodes":"3","size_leaf_vector":"1"}},{"base_weights":[-2.777909E-2,-5.200344E-1,4.1854408E-1,-2.085246E-1,-7.043009E-2,5.0961275E-2,1.6806528E-1],"categories":[],"categories_nodes":[],"categories_segments":[],"categories_sizes":[],"default_left":[0,0,0,0,0,0,0],"id":3,"left_children":[1,3,5,-1,-1,-1,-1],"loss_changes":[2.0798764E0,6.0355306E-2,8.09685E-2,0E0,0E0,0E0,0E0],"parents":[2147483647,0,0,1,1,2,2],"right_children":[2,4,6,-1,-1,-1,-1],"split_conditions":[8.333333E-1,5E-1,8.666667E-1,-2.085246E-1,-7.043009E-2,5.0961275E-2,1.6806528E-1],"split_indices":[0,0,0,0,0,0,0],"split_type":[0,0,0,0,0,0,0],"sum_hessian":[7.476001E0,3.476535E0,3.9994655E0,1.2641946E0,2.2123406E0,2.2496994E0,1.7497661E0],"tree_param":{"num_deleted":"0","num_feature":"6","num_nodes":"7","size_leaf_vector":"1"}},{"base_weights":[-2.9724216E-2,-4.564311E-1,3.3748162E-1,-1.8892781E-1,-5.788528E-2,4.0378273E-2,1.3646878E-1],"categories":[],"categories_nodes":[],"categories_segments":[],"categories_sizes":[],"default_left":[0,0,0,0,0,0,0],"id":4,"left_children":[1,3,5,-1,-1,-1,-1],"loss_changes":[1.4412825E0,7.143116E-2,5.765456E-2,0E0,0E0,0E0,0E0],"parents":[2147483647,0,0,1,1,2,2],"right_children":[2,4,6,-1,-1,-1,-1],"split_conditions":[8.333333E-1,5E-1,8.666667E-1,-1.8892781E-1,-5.788528E-2,4.0378273E-2,1.3646878E-1],"split_indices":[0,0,0,0,0,0,0],"split_type":[0,0,0,0,0,0,0],"sum_hessian":[7.2152767E0,3.2248714E0,3.9904053E0,1.1066875E0,2.1181839E0,2.2495642E0,1.7408413E0],"tree_param":{"num_deleted":"0","num_feature":"6","num_nodes":"7","size_leaf_vector":"1"}},{"base_weights":[-3.191253E-2,-4.01727E-1,2.7348047E-1,-1.3750888E-1,-3.5724394E-2,3.2017503E-2,1.1165288E-1],"categories":[],"categories_nodes":[],"categories_segments":[],"categories_sizes":[],"default_left":[0,0,0,0,0,0,0],"id":5,"left_children":[1,3,5,-1,-1,-1,-1],"loss_changes":[1.0106078E0,9.6462965E-3,4.1964024E-2,0E0,0E0,0E0,0E0],"parents":[2147483647,0,0,1,1,2,2],"right_children":[2,4,6,-1,-1,-1,-1],"split_conditions":[8.333333E-1,6.388889E-1,8.666667E-1,-1.3750888E-1,-3.5724394E-2,3.2017503E-2,1.1165288E-1],"split_indices":[0,0,0,0,0,0,0],"split_type":[0,0,0,0,0,0,0],"sum_hessian":[6.975503E0,3.0123124E0,3.9631908E0,1.9915605E0,1.0207521E0,2.2473845E0,1.7158061E0],"tree_param":{"num_deleted":"0","num_feature":"6","num_nodes":"7","size_leaf_vector":"1"}},{"base_weights":[-2.831993E-2,-3.4535086E-1,2.2228593E-1,-2.4113435E-2,-1.23718694E-1,2.5397923E-2,9.174691E-2],"categories":[],"categories_nodes":[],"categories_segments":[],"categories_sizes":[],"default_left":[0,0,0,0,0,0,0],"id":6,"left_children":[1,3,5,-1,-1,-1,-1],"loss_changes":[6.9130963E-1,3.4475327E-2,3.0771166E-2,0E0,0E0,0E0,0E0],"parents":[2147483647,0,0,1,1,2,2],"right_children":[2,4,6,-1,-1,-1,-1],"split_conditions":[8.333333E-1,5.277778E-1,8.666667E-1,-2.4113435E-2,-1.23718694E-1,2.5397923E-2,9.174691E-2],"split_indices":[0,0,0,0,0,0,0],"split_type":[0,0,0,0,0,0,0],"sum_hessian":[6.7349844E0,2.806516E0,3.9284687E0,1.0107452E0,1.7957706E0,2.2443583E0,1.6841103E0],"tree_param":{"num_deleted":"0","num_feature":"6","num_nodes":"7","size_leaf_vector":"1"}},{"base_weights":[-2.5456881E-2,-8.8726774E-2,1.810068E-1,2.0150598E-2,7.5571865E-2],"categories":[],"categories_nodes":[],"categories_segments":[],"categories_sizes":[],"default_left":[0,0,0,0,0],"id":7,"left_children":[1,-1,3,-1,-1],"loss_changes":[4.7403204E-1,0E0,2.2565141E-2,0E0,0E0],"parents":[2147483647,0,0,2,2],"right_children":[2,-1,4,-1,-1],"split_conditions":[8.333333E-1,-8.8726774E-2,8.666667E-1,2.0150598E-2,7.5571865E-2],"split_indices":[0,0,0,0,0],"split_type":[0,0,0,0,0],"sum_hessian":[6.534874E0,2.6426606E0,3.8922136E0,2.2411454E0,1.6510682E0],"tree_param":{"num_deleted":"0","num_feature":"6","num_nodes":"5","size_leaf_vector":"1"}},{"base_weights":[-1.819478E-2,-9.6716054E-2,1.2405543E-1,1.735194E-1,-1.6881135E-1,-9.412473E-2,2.2706721E-2],"categories":[],"categories_nodes":[],"categories_segments":[],"categories_sizes":[],"default_left":[0,0,0,0,0,0,0],"id":8,"left_children":[1,-1,3,-1,5,-1,-1],"loss_changes":[3.5738313E-1,0E0,8.587365E-1,0E0,1.7442903E-1,0E0,0E0],"parents":[2147483647,0,0,2,2,4,4],"right_children":[2,-1,4,-1,6,-1,-1],"split_conditions":[6.388889E-1,-9.6716054E-2,8.666667E-1,1.735194E-1,8.666667E-1,-9.412473E-2,2.2706721E-2],"split_indices":[0,0,2,0,0,0,0],"split_type":[0,0,0,0,0,0,0],"sum_hessian":[6.334854E0,1.6149852E0,4.7198687E0,1.4678103E0,3.2520585E0,1.8639185E0,1.38814E0],"tree_param":{"num_deleted":"0","num_feature":"6","num_nodes":"7","size_leaf_vector":"1"}},{"base_weights":[-1.3700186E-2,-1.4663601E-1,8.444531E-2,-3.5018927E-1,1.0621623E-1,1.5256952E-2,-2.0010786E-1],"categories":[],"categories_nodes":[],"categories_segments":[],"categories_sizes":[],"default_left":[0,0,0,0,0,0,0],"id":9,"left_children":[1,3,-1,5,-1,-1,-1],"loss_changes":[3.2706967E-1,7.027858E-1,0E0,6.108515E-1,0E0,0E0,0E0],"parents":[2147483647,0,0,1,1,3,3],"right_children":[2,4,-1,6,-1,-1,-1],"split_conditions":[9.3333334E-1,8.666667E-1,8.444531E-2,8.666667E-1,1.0621623E-1,1.5256952E-2,-2.0010786E-1],"split_indices":[2,0,0,2,0,0,0],"split_type":[0,0,0,0,0,0,0],"sum_hessian":[6.2831187E0,4.679124E0,1.6039952E0,3.5403836E0,1.13874E0,1.9330521E0,1.6073316E0],"tree_param":{"num_deleted":"0","num_feature":"6","num_nodes":"7","size_leaf_vector":"1"}},{"base_weights":[-1.0012775E-2,-6.779861E-2,1.4591037E-1,9.6970604E-4,1.9120137E-1,1.1093274E-3,9.6515596E-2],"categories":[],"categories_nodes":[],"categories_segments":[],"categories_sizes":[],"default_left":[0,0,0,0,0,0,0],"id":10,"left_children":[1,-1,3,-1,5,-1,-1],"loss_changes":[2.7469885E-1,0E0,3.0245468E-2,0E0,8.711015E-2,0E0,0E0],"parents":[2147483647,0,0,2,2,4,4],"right_children":[2,-1,4,-1,6,-1,-1],"split_conditions":[8.333333E-1,-6.779861E-2,8.888889E-1,9.6970604E-4,8.666667E-1,1.1093274E-3,9.6515596E-2],"split_indices":[0,0,2,0,0,0,0],"split_type":[0,0,0,0,0,0,0],"sum_hessian":[6.177779E0,2.4016478E0,3.7761314E0,1.1680018E0,2.6081295E0,1.4924206E0,1.1157091E0],"tree_param":{"num_deleted":"0","num_feature":"6","num_nodes":"7","size_leaf_vector":"1"}},{"base_weights":[-3.1018094E-3,-1.10836096E-1,6.761348E-2,-1.2053648E-1,1.5605494E-1,-2.3092246E-3,8.293245E-2],"categories":[],"categories_nodes":[],"categories_segments":[],"categories_sizes":[],"default_left":[0,0,0,0,0,0,0],"id":11,"left_children":[1,3,-1,-1,5,-1,-1],"loss_changes":[1.9783798E-1,4.8532844E-1,0E0,0E0,7.228655E-2,0E0,0E0],"parents":[2147483647,0,0,1,1,4,4],"right_children":[2,4,-1,-1,6,-1,-1],"split_conditions":[9.3333334E-1,8.333333E-1,6.761348E-2,-1.2053648E-1,8.666667E-1,-2.3092246E-3,8.293245E-2],"split_indices":[2,0,0,0,0,0,0],"split_type":[0,0,0,0,0,0,0],"sum_hessian":[6.0224233E0,4.442546E0,1.5798775E0,1.883645E0,2.5589008E0,1.4807771E0,1.0781238E0],"tree_param":{"num_deleted":"0","num_feature":"6","num_nodes":"7","size_leaf_vector":"1"}},{"base_weights":[5.2840234E-4,6.697871E-2,-1.3525252E-1,-1.03589185E-1,5.5040166E-2],"categories":[],"categories_nodes":[],"categories_segments":[],"categories_sizes":[],"default_left":[0,0,0,0,0],"id":12,"left_children":[1,-1,3,-1,-1],"loss_changes":[2.3673952E-1,0E0,3.890839E-1,0E0,0E0],"parents":[2147483647,0,0,2,2],"right_children":[2,-1,4,-1,-1],"split_conditions":[8.666667E-1,6.697871E-2,9.3333334E-1,-1.03589185E-1,5.5040166E-2],"split_indices":[2,0,2,0,0],"split_type":[0,0,0,0,0],"sum_hessian":[5.8294334E0,1.9637803E0,3.8656533E0,2.2798097E0,1.5858434E0],"tree_param":{"num_deleted":"0","num_feature":"6","num_nodes":"5","size_leaf_vector":"1"}},{"base_weights":[2.675695E-3,-1.634757E-1,1.3417463E-1,-6.988446E-2,-3.5145849E-3,1.5725765E-2,7.795276E-2,-1.0503336E-1,1.107525E-1],"categories":[],"categories_nodes":[],"categories_segments":[],"categories_sizes":[],"default_left":[0,0,0,0,0,0,0,0,0],"id":13,"left_children":[1,3,5,-1,-1,7,-1,-1,-1],"loss_changes":[1.720826E-1,3.403326E-2,6.119051E-2,0E0,0E0,5.587937E-1,0E0,0E0,0E0],"parents":[2147483647,0,0,1,1,2,2,5,5],"right_children":[2,4,6,-1,-1,8,-1,-1,-1],"split_conditions":[8.888889E-1,8.333333E-1,8.666667E-1,-6.988446E-2,-3.5145849E-3,9.3333334E-1,7.795276E-2,-1.0503336E-1,1.107525E-1],"split_indices":[2,0,0,0,0,2,0,0,0],"split_type":[0,0,0,0,0,0,0,0,0],"sum_hessian":[5.872175E0,2.4868374E0,3.3853378E0,1.3389317E0,1.1479057E0,2.3219297E0,1.0634081E0,1.1456112E0,1.1763185E0],"tree_param":{"num_deleted":"0","num_feature":"6","num_nodes":"9","size_leaf_vector":"1"}},{"base_weights":[2.697238E-3,6.325547E-2,-1.2577459E-1,-7.757368E-2,2.5804935E-2],"categories":[],"categories_nodes":[],"categories_segments":[],"categories_sizes":[],"default_left":[0,0,0,0,0],"id":14,"left_children":[1,-1,3,-1,-1],"loss_changes":[2.0703304E-1,0E0,1.5726107E-1,0E0,0E0],"parents":[2147483647,0,0,2,2],"right_children":[2,-1,4,-1,-1],"split_conditions":[8.666667E-1,6.325547E-2,9.3333334E-1,-7.757368E-2,2.5804935E-2],"split_indices":[2,0,2,0,0],"split_type":[0,0,0,0,0],"sum_hessian":[5.750187E0,1.949811E0,3.800376E0,2.199965E0,1.600411E0],"tree_param":{"num_deleted":"0","num_feature":"6","num_nodes":"5","size_leaf_vector":"1"}},{"base_weights":[3.2655122E-3,-1.622032E-1,1.3564235E-1,-6.894071E-2,-3.8001307E-3,2.7915915E-2,7.246677E-2,-7.988042E-2,8.7127425E-2],"categories":[],"categories_nodes":[],"categories_segments":[],"categories_sizes":[],"default_left":[0,0,0,0,0,0,0,0,0],"id":15,"left_children":[1,3,5,-1,-1,7,-1,-1,-1],"loss_changes":[1.7064792E-1,3.2180995E-2,4.2485803E-2,0E0,0E0,3.2983607E-1,0E0,0E0,0E0],"parents":[2147483647,0,0,1,1,2,2,5,5],"right_children":[2,4,6,-1,-1,8,-1,-1,-1],"split_conditions":[8.888889E-1,8.333333E-1,8.666667E-1,-6.894071E-2,-3.8001307E-3,9.3333334E-1,7.246677E-2,-7.988042E-2,8.7127425E-2],"split_indices":[2,0,0,0,0,2,0,0,0],"split_type":[0,0,0,0,0,0,0,0,0],"sum_hessian":[5.7861934E0,2.4715211E0,3.314672E0,1.3324201E0,1.1391011E0,2.2696974E0,1.0449746E0,1.0635244E0,1.2061731E0],"tree_param":{"num_deleted":"0","num_feature":"6","num_nodes":"9","size_leaf_vector":"1"}},{"base_weights":[2.858691E-3,6.0263354E-2,-1.20356515E-1,-5.9245735E-2,5.5714273E-3],"categories":[],"categories_nodes":[],"categories_segments":[],"categories_sizes":[],"default_left":[0,0,0,0,0],"id":16,"left_children":[1,-1,3,-1,-1],"loss_changes":[1.8691345E-1,0E0,5.4424495E-2,0E0,0E0],"parents":[2147483647,0,0,2,2],"right_children":[2,-1,4,-1,-1],"split_conditions":[8.666667E-1,6.0263354E-2,9.3333334E-1,-5.9245735E-2,5.5714273E-3],"split_indices":[2,0,2,0,0],"split_type":[0,0,0,0,0],"sum_hessian":[5.6698093E0,1.932994E0,3.7368152E0,2.1317976E0,1.6050175E0],"tree_param":{"num_deleted":"0","num_feature":"6","num_nodes":"5","size_leaf_vector":"1"}},{"base_weights":[2.7172742E-3,-1.6191508E-1,1.3579018E-1,-6.770497E-2,-4.87018E-3,6.891587E-2,-2.0445692E-3],"categories":[],"categories_nodes":[],"categories_segments":[],"categories_sizes":[],"default_left":[0,0,0,0,0,0,0],"id":17,"left_children":[1,3,5,-1,-1,-1,-1],"loss_changes":[1.688494E-1,2.8410248E-2,5.850692E-2,0E0,0E0,0E0,0E0],"parents":[2147483647,0,0,1,1,2,2],"right_children":[2,4,6,-1,-1,-1,-1],"split_conditions":[8.888889E-1,8.333333E-1,9.259259E-1,-6.770497E-2,-4.87018E-3,6.891587E-2,-2.0445692E-3],"split_indices":[2,0,2,0,0,0,0],"split_type":[0,0,0,0,0,0,0],"sum_hessian":[5.7035875E0,2.4525962E0,3.250991E0,1.3239242E0,1.128672E0,1.5917103E0,1.6592808E0],"tree_param":{"num_deleted":"0","num_feature":"6","num_nodes":"7","size_leaf_vector":"1"}},{"base_weights":[6.6461775E-4,5.7839204E-2,-1.1770167E-1,-5.750088E-2,4.9194843E-3],"categories":[],"categories_nodes":[],"categories_segments":[],"categories_sizes":[],"default_left":[0,0,0,0,0],"id":18,"left_children":[1,-1,3,-1,-1],"loss_changes":[1.739527E-1,0E0,5.0125405E-2,0E0,0E0],"parents":[2147483647,0,0,2,2],"right_children":[2,-1,4,-1,-1],"split_conditions":[8.666667E-1,5.7839204E-2,9.3333334E-1,-5.750088E-2,4.9194843E-3],"split_indices":[2,0,2,0,0],"split_type":[0,0,0,0,0],"sum_hessian":[5.6511245E0,1.9145684E0,3.736556E0,2.1315272E0,1.6050287E0],"tree_param":{"num_deleted":"0","num_feature":"6","num_nodes":"5","size_leaf_vector":"1"}},{"base_weights":[1.0136619E-3,-1.6050212E-1,1.311913E-1,-6.6299416E-2,-5.5767843E-3,6.675901E-2,-2.2125188E-3],"categories":[],"categories_nodes":[],"categories_segments":[],"categories_sizes":[],"default_left":[0,0,0,0,0,0,0],"id":19,"left_children":[1,3,5,-1,-1,-1,-1],"loss_changes":[1.6155244E-1,2.535481E-2,5.5434167E-2,0E0,0E0,0E0,0E0],"parents":[2147483647,0,0,1,1,2,2],"right_children":[2,4,6,-1,-1,-1,-1],"split_conditions":[8.888889E-1,8.333333E-1,9.259259E-1,-6.6299416E-2,-5.5767843E-3,6.675901E-2,-2.2125188E-3],"split_indices":[2,0,2,0,0,0,0],"split_type":[0,0,0,0,0,0,0],"sum_hessian":[5.6820927E0,2.4318576E0,3.2502348E0,1.3143039E0,1.1175537E0,1.5937426E0,1.6564924E0],"tree_param":{"num_deleted":"0","num_feature":"6","num_nodes":"7","size_leaf_vector":"1"}},{"base_weights":[-7.6639885E-4,5.580408E-2,-1.1479818E-1,-5.577387E-2,4.4191414E-3],"categories":[],"categories_nodes":[],"categories_segments":[],"categories_sizes":[],"default_left":[0,0,0,0,0],"id":20,"left_children":[1,-1,3,-1,-1],"loss_changes":[1.6258328E-1,0E0,4.635998E-2,0E0,0E0],"parents":[2147483647,0,0,2,2],"right_children":[2,-1,4,-1,-1],"split_conditions":[8.666667E-1,5.580408E-2,9.3333334E-1,-5.577387E-2,4.4191414E-3],"split_indices":[2,0,2,0,0],"split_type":[0,0,0,0,0],"sum_hessian":[5.6308374E0,1.895247E0,3.7355905E0,2.130555E0,1.6050353E0],"tree_param":{"num_deleted":"0","num_feature":"6","num_nodes":"5","size_leaf_vector":"1"}},{"base_weights":[-8.570515E-5,-1.5836723E-1,1.2694065E-1,-6.4803556E-2,-6.0258335E-3,6.4684905E-2,-2.2863331E-3],"categories":[],"categories_nodes":[],"categories_segments":[],"categories_sizes":[],"default_left":[0,0,0,0,0,0,0],"id":21,"left_children":[1,3,5,-1,-1,-1,-1],"loss_changes":[1.5399738E-1,2.2841841E-2,5.235049E-2,0E0,0E0,0E0,0E0],"parents":[2147483647,0,0,1,1,2,2],"right_children":[2,4,6,-1,-1,-1,-1],"split_conditions":[8.888889E-1,8.333333E-1,9.259259E-1,-6.4803556E-2,-6.0258335E-3,6.4684905E-2,-2.2863331E-3],"split_indices":[2,0,2,0,0,0,0],"split_type":[0,0,0,0,0,0,0],"sum_hessian":[5.659436E0,2.4098763E0,3.2495599E0,1.3041152E0,1.1057613E0,1.5956641E0,1.6538957E0],"tree_param":{"num_deleted":"0","num_feature":"6","num_nodes":"7","size_leaf_vector":"1"}},{"base_weights":[-1.6931033E-3,5.403982E-2,-1.1177958E-1,-5.408671E-2,4.0249173E-3],"categories":[],"categories_nodes":[],"categories_segments":[],"categories_sizes":[],"default_left":[0,0,0,0,0],"id":22,"left_children":[1,-1,3,-1,-1],"loss_changes":[1.5243374E-1,0E0,4.3022532E-2,0E0,0E0],"parents":[2147483647,0,0,2,2],"right_children":[2,-1,4,-1,-1],"split_conditions":[8.666667E-1,5.403982E-2,9.3333334E-1,-5.408671E-2,4.0249173E-3],"split_indices":[2,0,2,0,0],"split_type":[0,0,0,0,0],"sum_hessian":[5.609454E0,1.8754904E0,3.7339635E0,2.1289241E0,1.6050394E0],"tree_param":{"num_deleted":"0","num_feature":"6","num_nodes":"5","size_leaf_vector":"1"}},{"base_weights":[-7.8665814E-4,-1.5578063E-1,1.229513E-1,-6.326874E-2,-6.2916153E-3,6.2685244E-2,-2.3003104E-3],"categories":[],"categories_nodes":[],"categories_segments":[],"categories_sizes":[],"default_left":[0,0,0,0,0,0,0],"id":23,"left_children":[1,3,5,-1,-1,-1,-1],"loss_changes":[1.4642316E-1,2.0742841E-2,4.933154E-2,0E0,0E0,0E0,0E0],"parents":[2147483647,0,0,1,1,2,2],"right_children":[2,4,6,-1,-1,-1,-1],"split_conditions":[8.888889E-1,8.333333E-1,9.259259E-1,-6.326874E-2,-6.2916153E-3,6.2685244E-2,-2.3003104E-3],"split_indices":[2,0,2,0,0,0,0],"split_type":[0,0,0,0,0,0,0],"sum_hessian":[5.6360154E0,2.3870475E0,3.248968E0,1.2937152E0,1.0933324E0,1.5974865E0,1.6514813E0],"tree_param":{"num_deleted":"0","num_feature":"6","num_nodes":"7","size_leaf_vector":"1"}},{"base_weights":[-2.286186E-3,5.246811E-2,-1.0873118E-1,-5.245191E-2,3.7061544E-3],"categories":[],"categories_nodes":[],"categories_segments":[],"categories_sizes":[],"default_left":[0,0,0,0,0],"id":24,"left_children":[1,-1,3,-1,-1],"loss_changes":[1.4325273E-1,0E0,4.0036228E-2,0E0,0E0],"parents":[2147483647,0,0,2,2],"right_children":[2,-1,4,-1,-1],"split_conditions":[8.666667E-1,5.246811E-2,9.3333334E-1,-5.245191E-2,3.7061544E-3],"split_indices":[2,0,2,0,0],"split_type":[0,0,0,0,0],"sum_hessian":[5.5873237E0,1.8555986E0,3.731725E0,2.1266832E0,1.6050419E0],"tree_param":{"num_deleted":"0","num_feature":"6","num_nodes":"5","size_leaf_vector":"1"}},{"base_weights":[-1.2248369E-3,-1.5292393E-1,1.1916899E-1,-6.1728004E-2,-6.4266166E-3,6.0755663E-2,-2.2768562E-3],"categories":[],"categories_nodes":[],"categories_segments":[],"categories_sizes":[],"default_left":[0,0,0,0,0,0,0],"id":25,"left_children":[1,3,5,-1,-1,-1,-1],"loss_changes":[1.3898487E-1,1.896298E-2,4.642323E-2,0E0,0E0,0E0,0E0],"parents":[2147483647,0,0,1,1,2,2],"right_children":[2,4,6,-1,-1,-1,-1],"split_conditions":[8.888889E-1,8.333333E-1,9.259259E-1,-6.1728004E-2,-6.4266166E-3,6.0755663E-2,-2.2768562E-3],"split_indices":[2,0,2,0,0,0,0],"split_type":[0,0,0,0,0,0,0],"sum_hessian":[5.6121054E0,2.3636513E0,3.2484543E0,1.2833302E0,1.0803211E0,1.5992168E0,1.6492374E0],"tree_param":{"num_deleted":"0","num_feature":"6","num_nodes":"7","size_leaf_vector":"1"}},{"base_weights":[-2.6582028E-3,5.103684E-2,-1.0570661E-1,-5.087581E-2,3.4419585E-3],"categories":[],"categories_nodes":[],"categories_segments":[],"categories_sizes":[],"default_left":[0,0,0,0,0],"id":26,"left_children":[1,-1,3,-1,-1],"loss_changes":[1.3486621E-1,0E0,3.7343502E-2,0E0,0E0],"parents":[2147483647,0,0,2,2],"right_children":[2,-1,4,-1,-1],"split_conditions":[8.666667E-1,5.103684E-2,9.3333334E-1,-5.087581E-2,3.4419585E-3],"split_indices":[2,0,2,0,0],"split_type":[0,0,0,0,0],"sum_hessian":[5.564694E0,1.8357669E0,3.7289271E0,2.1238837E0,1.6050433E0],"tree_param":{"num_deleted":"0","num_feature":"6","num_nodes":"5","size_leaf_vector":"1"}},{"base_weights":[-1.4900649E-3,-6.1225027E-2,8.695628E-2,1.2594263E-1,-1.3196698E-1,-1.703864E-2,-5.160639E-2],"categories":[],"categories_nodes":[],"categories_segments":[],"categories_sizes":[],"default_left":[0,0,0,0,0,0,0],"id":27,"left_children":[1,-1,3,-1,5,-1,-1],"loss_changes":[1.3579261E-1,0E0,4.4066563E-1,0E0,2.1238178E-3,0E0,0E0],"parents":[2147483647,0,0,2,2,4,4],"right_children":[2,-1,4,-1,6,-1,-1],"split_conditions":[6.388889E-1,-6.1225027E-2,8.666667E-1,1.2594263E-1,9.259259E-1,-1.703864E-2,-5.160639E-2],"split_indices":[0,0,2,0,2,0,0],"split_type":[0,0,0,0,0,0,0],"sum_hessian":[5.587904E0,1.3008282E0,4.287076E0,1.3368747E0,2.9502013E0,1.8660581E0,1.084143E0],"tree_param":{"num_deleted":"0","num_feature":"6","num_nodes":"7","size_leaf_vector":"1"}},{"base_weights":[-2.1865594E-3,-1.8856995E-1,1.4581206E-1,-6.7581534E-2,-1.6209155E-2,6.329788E-2,8.004052E-3],"categories":[],"categories_nodes":[],"categories_segments":[],"categories_sizes":[],"default_left":[0,0,0,0,0,0,0],"id":28,"left_children":[1,3,5,-1,-1,-1,-1],"loss_changes":[2.0899057E-1,4.361421E-3,2.7227856E-2,0E0,0E0,0E0,0E0],"parents":[2147483647,0,0,1,1,2,2],"right_children":[2,4,6,-1,-1,-1,-1],"split_conditions":[8.888889E-1,8.333333E-1,9.259259E-1,-6.7581534E-2,-1.6209155E-2,6.329788E-2,8.004052E-3],"split_indices":[2,0,2,0,0,0,0],"split_type":[0,0,0,0,0,0,0],"sum_hessian":[5.5795975E0,2.3482168E0,3.2313805E0,1.3150768E0,1.03314E0,1.5902288E0,1.6411518E0],"tree_param":{"num_deleted":"0","num_feature":"6","num_nodes":"7","size_leaf_vector":"1"}},{"base_weights":[-3.8324576E-3,-1.6056898E-1,1.1855901E-1,-5.7949092E-2,-1.3710511E-2,3.0216333E-2,6.0504805E-2,-7.0913516E-2,7.7853635E-2],"categories":[],"categories_nodes":[],"categories_segments":[],"categories_sizes":[],"default_left":[0,0,0,0,0,0,0,0,0],"id":29,"left_children":[1,3,5,-1,-1,7,-1,-1,-1],"loss_changes":[1.4428847E-1,3.481336E-3,2.5053207E-2,0E0,0E0,2.5893965E-1,0E0,0E0,0E0],"parents":[2147483647,0,0,1,1,2,2,5,5],"right_children":[2,4,6,-1,-1,8,-1,-1,-1],"split_conditions":[8.888889E-1,8.333333E-1,8.666667E-1,-5.7949092E-2,-1.3710511E-2,9.3333334E-1,6.0504805E-2,-7.0913516E-2,7.7853635E-2],"split_indices":[2,0,0,0,0,2,0,0,0],"split_type":[0,0,0,0,0,0,0,0,0],"sum_hessian":[5.529228E0,2.2876706E0,3.2415578E0,1.251049E0,1.0366215E0,2.232451E0,1.0091071E0,1.0179847E0,1.2144661E0],"tree_param":{"num_deleted":"0","num_feature":"6","num_nodes":"9","size_leaf_vector":"1"}},{"base_weights":[-3.7502302E-3,6.2130764E-2,-9.988988E-2,-9.018158E-2,8.414246E-2,8.608022E-2,-5.6235623E-2],"categories":[],"categories_nodes":[],"categories_segments":[],"categories_sizes":[],"default_left":[0,0,0,0,0,0,0],"id":30,"left_children":[1,-1,3,-1,5,-1,-1],"loss_changes":[1.5112983E-1,0E0,2.1346655E-1,0E0,2.4319033E-1,0E0,0E0],"parents":[2147483647,0,0,2,2,4,4],"right_children":[2,-1,4,-1,6,-1,-1],"split_conditions":[6.507937E-1,6.2130764E-2,8.888889E-1,-9.018158E-2,9.259259E-1,8.608022E-2,-5.6235623E-2],"split_indices":[0,0,2,0,2,0,0],"split_type":[0,0,0,0,0,0,0],"sum_hessian":[5.434827E0,1.3405524E0,4.094274E0,1.655386E0,2.4388883E0,1.3639715E0,1.0749168E0],"tree_param":{"num_deleted":"0","num_feature":"6","num_nodes":"7","size_leaf_vector":"1"}},{"base_weights":[-2.672949E-3,5.3140666E-2,-1.0841415E-1,-5.084126E-2,9.5162593E-4],"categories":[],"categories_nodes":[],"categories_segments":[],"categories_sizes":[],"default_left":[0,0,0,0,0],"id":31,"left_children":[1,-1,3,-1,-1],"loss_changes":[1.4270782E-1,0E0,3.2631475E-2,0E0,0E0],"parents":[2147483647,0,0,2,2],"right_children":[2,-1,4,-1,-1],"split_conditions":[8.666667E-1,5.3140666E-2,9.3333334E-1,-5.084126E-2,9.5162593E-4],"split_indices":[2,0,2,0,0],"split_type":[0,0,0,0,0],"sum_hessian":[5.495699E0,1.7850745E0,3.7106247E0,2.063044E0,1.6475805E0],"tree_param":{"num_deleted":"0","num_feature":"6","num_nodes":"5","size_leaf_vector":"1"}},{"base_weights":[-1.5562691E-3,-6.0776427E-2,8.6695574E-2,1.2352159E-1,-3.8334653E-2],"categories":[],"categories_nodes":[],"categories_segments":[],"categories_sizes":[],"default_left":[0,0,0,0,0],"id":32,"left_children":[1,-1,3,-1,-1],"loss_changes":[1.3321611E-1,0E0,4.1724825E-1,0E0,0E0],"parents":[2147483647,0,0,2,2],"right_children":[2,-1,4,-1,-1],"split_conditions":[6.388889E-1,-6.0776427E-2,8.666667E-1,1.2352159E-1,-3.8334653E-2],"split_indices":[0,0,2,0,0],"split_type":[0,0,0,0,0],"sum_hessian":[5.5187893E0,1.2883793E0,4.2304096E0,1.3161085E0,2.9143014E0],"tree_param":{"num_deleted":"0","num_feature":"6","num_nodes":"5","size_leaf_vector":"1"}},{"base_weights":[2.1045657E-3,-1.5877497E-1,1.2670001E-1,-6.270068E-2,-6.714901E-3,5.773505E-2,5.0124717E-3],"categories":[],"categories_nodes":[],"categories_segments":[],"categories_sizes":[],"default_left":[0,0,0,0,0,0,0],"id":33,"left_children":[1,3,5,-1,-1,-1,-1],"loss_changes":[1.504911E-1,1.7809317E-2,2.7314864E-2,0E0,0E0,0E0,0E0],"parents":[2147483647,0,0,1,1,2,2],"right_children":[2,4,6,-1,-1,-1,-1],"split_conditions":[8.888889E-1,8.333333E-1,9.259259E-1,-6.270068E-2,-6.714901E-3,5.773505E-2,5.0124717E-3],"split_indices":[2,0,2,0,0,0,0],"split_type":[0,0,0,0,0,0,0],"sum_hessian":[5.504127E0,2.2825456E0,3.2215815E0,1.2791314E0,1.0034142E0,1.5470929E0,1.6744885E0],"tree_param":{"num_deleted":"0","num_feature":"6","num_nodes":"7","size_leaf_vector":"1"}},{"base_weights":[1.3304767E-4,5.877689E-2,-9.034924E-2,-8.805595E-2,8.982414E-2,7.669346E-2,-4.163137E-2],"categories":[],"categories_nodes":[],"categories_segments":[],"categories_sizes":[],"default_left":[0,0,0,0,0,0,0],"id":34,"left_children":[1,-1,3,-1,5,-1,-1],"loss_changes":[1.3205792E-1,0E0,2.1302842E-1,0E0,1.6694385E-1,0E0,0E0],"parents":[2147483647,0,0,2,2,4,4],"right_children":[2,-1,4,-1,6,-1,-1],"split_conditions":[6.507937E-1,5.877689E-2,8.888889E-1,-8.805595E-2,9.259259E-1,7.669346E-2,-4.163137E-2],"split_indices":[0,0,2,0,2,0,0],"split_type":[0,0,0,0,0,0,0],"sum_hessian":[5.4551554E0,1.3558924E0,4.0992627E0,1.6309938E0,2.468269E0,1.3619764E0,1.1062926E0],"tree_param":{"num_deleted":"0","num_feature":"6","num_nodes":"7","size_leaf_vector":"1"}},{"base_weights":[6.150651E-4,-5.867507E-2,8.578881E-2,1.2173652E-1,-3.732118E-2],"categories":[],"categories_nodes":[],"categories_segments":[],"categories_sizes":[],"default_left":[0,0,0,0,0],"id":35,"left_children":[1,-1,3,-1,-1],"loss_changes":[1.2545268E-1,0E0,4.0223905E-1,0E0,0E0],"parents":[2147483647,0,0,2,2],"right_children":[2,-1,4,-1,-1],"split_conditions":[6.388889E-1,-5.867507E-2,8.666667E-1,1.2173652E-1,-3.732118E-2],"split_indices":[0,0,2,0,0],"split_type":[0,0,0,0,0],"sum_hessian":[5.5031414E0,1.2734491E0,4.229692E0,1.307931E0,2.9217613E0],"tree_param":{"num_deleted":"0","num_feature":"6","num_nodes":"5","size_leaf_vector":"1"}},{"base_weights":[3.8719717E-3,-4.1394345E-2,1.10895194E-1,4.0784743E-2,1.3842963E-2],"categories":[],"categories_nodes":[],"categories_segments":[],"categories_sizes":[],"default_left":[0,0,0,0,0],"id":36,"left_children":[1,-1,3,-1,-1],"loss_changes":[1.13815464E-1,0E0,6.2649697E-4,0E0,0E0],"parents":[2147483647,0,0,2,2],"right_children":[2,-1,4,-1,-1],"split_conditions":[8.888889E-1,-4.1394345E-2,9.259259E-1,4.0784743E-2,1.3842963E-2],"split_indices":[2,0,2,0,0],"split_type":[0,0,0,0,0],"sum_hessian":[5.489049E0,2.2360413E0,3.2530077E0,1.5526989E0,1.7003089E0],"tree_param":{"num_deleted":"0","num_feature":"6","num_nodes":"5","size_leaf_vector":"1"}},{"base_weights":[4.652856E-3,5.626827E-2,-8.11701E-2,-7.911828E-2,7.899657E-2,6.2979996E-2,-3.0960886E-2],"categories":[],"categories_nodes":[],"categories_segments":[],"categories_sizes":[],"default_left":[0,0,0,0,0,0,0],"id":37,"left_children":[1,-1,3,-1,5,-1,-1],"loss_changes":[1.16685025E-1,0E0,1.6987318E-1,0E0,1.04796425E-1,0E0,0E0],"parents":[2147483647,0,0,2,2,4,4],"right_children":[2,-1,4,-1,6,-1,-1],"split_conditions":[6.507937E-1,5.626827E-2,8.888889E-1,-7.911828E-2,9.259259E-1,6.2979996E-2,-3.0960886E-2],"split_indices":[0,0,2,0,2,0,0],"split_type":[0,0,0,0,0,0,0],"sum_hessian":[5.4634066E0,1.3662277E0,4.097179E0,1.6125813E0,2.4845977E0,1.3571048E0,1.127493E0],"tree_param":{"num_deleted":"0","num_feature":"6","num_nodes":"7","size_leaf_vector":"1"}},{"base_weights":[4.3000835E-3,-5.8040652E-2,8.914796E-2,1.18194826E-1,-3.4308042E-2],"categories":[],"categories_nodes":[],"categories_segments":[],"categories_sizes":[],"default_left":[0,0,0,0,0],"id":38,"left_children":[1,-1,3,-1,-1],"loss_changes":[1.2638696E-1,0E0,3.698748E-1,0E0,0E0],"parents":[2147483647,0,0,2,2],"right_children":[2,-1,4,-1,-1],"split_conditions":[6.388889E-1,-5.8040652E-2,8.666667E-1,1.18194826E-1,-3.4308042E-2],"split_indices":[0,0,2,0,0],"split_type":[0,0,0,0,0],"sum_hessian":[5.5040417E0,1.2680961E0,4.235945E0,1.3211055E0,2.91484E0],"tree_param":{"num_deleted":"0","num_feature":"6","num_nodes":"5","size_leaf_vector":"1"}},{"base_weights":[6.4899786E-3,-3.9973386E-2,1.0327389E-1,5.5333406E-2,-2.0306418E-2],"categories":[],"categories_nodes":[],"categories_segments":[],"categories_sizes":[],"default_left":[0,0,0,0,0],"id":39,"left_children":[1,-1,3,-1,-1],"loss_changes":[1.01510994E-1,0E0,7.349856E-2,0E0,0E0],"parents":[2147483647,0,0,2,2],"right_children":[2,-1,4,-1,-1],"split_conditions":[8.333333E-1,-3.9973386E-2,9.259259E-1,5.5333406E-2,-2.0306418E-2],"split_indices":[0,0,2,0,0],"split_type":[0,0,0,0,0],"sum_hessian":[5.4884586E0,2.091734E0,3.3967247E0,2.2497194E0,1.1470053E0],"tree_param":{"num_deleted":"0","num_feature":"6","num_nodes":"5","size_leaf_vector":"1"}},{"base_weights":[3.7117766E-3,6.055514E-2,-8.8363E-2,-8.308916E-2,7.6041624E-2,4.964387E-2,-1.6998697E-2],"categories":[],"categories_nodes":[],"categories_segments":[],"categories_sizes":[],"default_left":[0,0,0,0,0,0,0],"id":40,"left_children":[1,-1,3,-1,5,-1,-1],"loss_changes":[1.3488868E-1,0E0,1.78452E-1,0E0,5.0876297E-2,0E0,0E0],"parents":[2147483647,0,0,2,2,4,4],"right_children":[2,-1,4,-1,6,-1,-1],"split_conditions":[6.507937E-1,6.055514E-2,8.888889E-1,-8.308916E-2,9.259259E-1,4.964387E-2,-1.6998697E-2],"split_indices":[0,0,2,0,2,0,0],"split_type":[0,0,0,0,0,0,0],"sum_hessian":[5.4160976E0,1.3400837E0,4.076014E0,1.5794551E0,2.496559E0,1.3438601E0,1.1526988E0],"tree_param":{"num_deleted":"0","num_feature":"6","num_nodes":"7","size_leaf_vector":"1"}},{"base_weights":[3.730145E-3,-5.2687243E-2,7.967912E-2,1.0964975E-1,-3.2777116E-2],"categories":[],"categories_nodes":[],"categories_segments":[],"categories_sizes":[],"default_left":[0,0,0,0,0],"id":41,"left_children":[1,-1,3,-1,-1],"loss_changes":[1.0190302E-1,0E0,3.2191163E-1,0E0,0E0],"parents":[2147483647,0,0,2,2],"right_children":[2,-1,4,-1,-1],"split_conditions":[6.388889E-1,-5.2687243E-2,8.666667E-1,1.0964975E-1,-3.2777116E-2],"split_indices":[0,0,2,0,0],"split_type":[0,0,0,0,0],"sum_hessian":[5.4535985E0,1.2319468E0,4.2216516E0,1.3081656E0,2.9134862E0],"tree_param":{"num_deleted":"0","num_feature":"6","num_nodes":"5","size_leaf_vector":"1"}},{"base_weights":[5.94964E-3,5.503129E-2,-7.786205E-2,-8.131043E-2,8.579108E-2,4.678212E-2,-8.901972E-3],"categories":[],"categories_nodes":[],"categories_segments":[],"categories_sizes":[],"default_left":[0,0,0,0,0,0,0],"id":42,"left_children":[1,-1,3,-1,5,-1,-1],"loss_changes":[1.10085346E-1,0E0,1.8373962E-1,0E0,3.30399E-2,0E0,0E0],"parents":[2147483647,0,0,2,2,4,4],"right_children":[2,-1,4,-1,6,-1,-1],"split_conditions":[6.507937E-1,5.503129E-2,8.888889E-1,-8.131043E-2,9.259259E-1,4.678212E-2,-8.901972E-3],"split_indices":[0,0,2,0,2,0,0],"split_type":[0,0,0,0,0,0,0],"sum_hessian":[5.44026E0,1.3636887E0,4.076571E0,1.5687261E0,2.5078452E0,1.341984E0,1.165861E0],"tree_param":{"num_deleted":"0","num_feature":"6","num_nodes":"7","size_leaf_vector":"1"}},{"base_weights":[5.5631488E-3,-5.3022515E-2,8.230785E-2,1.00746386E-1,-8.986221E-2,-3.25556E-2,-7.455364E-3],"categories":[],"categories_nodes":[],"categories_segments":[],"categories_sizes":[],"default_left":[0,0,0,0,0,0,0],"id":43,"left_children":[1,-1,3,-1,5,-1,-1],"loss_changes":[1.0505385E-1,0E0,2.5866145E-1,0E0,2.0411909E-3,0E0,0E0],"parents":[2147483647,0,0,2,2,4,4],"right_children":[2,-1,4,-1,6,-1,-1],"split_conditions":[6.388889E-1,-5.3022515E-2,8.666667E-1,1.00746386E-1,9.259259E-1,-3.25556E-2,-7.455364E-3],"split_indices":[0,0,2,0,2,0,0],"split_type":[0,0,0,0,0,0,0],"sum_hessian":[5.4689484E0,1.234188E0,4.2347608E0,1.3283292E0,2.9064314E0,1.7383385E0,1.168093E0],"tree_param":{"num_deleted":"0","num_feature":"6","num_nodes":"7","size_leaf_vector":"1"}},{"base_weights":[4.6957294E-3,-4.1841015E-2,1.0603749E-1,4.7758806E-2,-6.2440867E-3],"categories":[],"categories_nodes":[],"categories_segments":[],"categories_sizes":[],"default_left":[0,0,0,0,0],"id":44,"left_children":[1,-1,3,-1,-1],"loss_changes":[1.08964704E-1,0E0,3.2668434E-2,0E0,0E0],"parents":[2147483647,0,0,2,2],"right_children":[2,-1,4,-1,-1],"split_conditions":[8.333333E-1,-4.1841015E-2,9.259259E-1,4.7758806E-2,-6.2440867E-3],"split_indices":[0,0,2,0,0],"split_type":[0,0,0,0,0],"sum_hessian":[5.445967E0,2.092708E0,3.3532588E0,2.1833258E0,1.1699332E0],"tree_param":{"num_deleted":"0","num_feature":"6","num_nodes":"5","size_leaf_vector":"1"}},{"base_weights":[3.123732E-3,5.8859542E-2,-8.721259E-2,-8.172691E-2,7.160892E-2,3.7164558E-2,-5.229795E-3],"categories":[],"categories_nodes":[],"categories_segments":[],"categories_sizes":[],"default_left":[0,0,0,0,0,0,0],"id":45,"left_children":[1,-1,3,-1,5,-1,-1],"loss_changes":[1.281968E-1,0E0,1.6750193E-1,0E0,1.8452065E-2,0E0,0E0],"parents":[2147483647,0,0,2,2,4,4],"right_children":[2,-1,4,-1,6,-1,-1],"split_conditions":[6.507937E-1,5.8859542E-2,8.888889E-1,-8.172691E-2,9.259259E-1,3.7164558E-2,-5.229795E-3],"split_indices":[0,0,2,0,2,0,0],"split_type":[0,0,0,0,0,0,0],"sum_hessian":[5.3689933E0,1.33782E0,4.031173E0,1.5307752E0,2.5003982E0,1.3289443E0,1.171454E0],"tree_param":{"num_deleted":"0","num_feature":"6","num_nodes":"7","size_leaf_vector":"1"}},{"base_weights":[3.1752961E-3,4.732178E-2,-7.154465E-2,-6.768916E-2,5.9348594E-2,3.0886719E-2,-4.3804175E-3],"categories":[],"categories_nodes":[],"categories_segments":[],"categories_sizes":[],"default_left":[0,0,0,0,0,0,0],"id":46,"left_children":[1,-1,3,-1,5,-1,-1],"loss_changes":[8.519325E-2,0E0,1.1427452E-1,0E0,1.27778705E-2,0E0,0E0],"parents":[2147483647,0,0,2,2,4,4],"right_children":[2,-1,4,-1,6,-1,-1],"split_conditions":[6.507937E-1,4.732178E-2,8.888889E-1,-6.768916E-2,9.259259E-1,3.0886719E-2,-4.3804175E-3],"split_indices":[0,0,2,0,2,0,0],"split_type":[0,0,0,0,0,0,0],"sum_hessian":[5.399494E0,1.3975276E0,4.0019665E0,1.5057003E0,2.4962664E0,1.3235533E0,1.172713E0],"tree_param":{"num_deleted":"0","num_feature":"6","num_nodes":"7","size_leaf_vector":"1"}},{"base_weights":[2.8925135E-3,-5.464077E-2,8.253689E-2,1.0446871E-1,-9.687183E-2,-3.8740408E-2,-3.6690228E-3],"categories":[],"categories_nodes":[],"categories_segments":[],"categories_sizes":[],"default_left":[0,0,0,0,0,0,0],"id":47,"left_children":[1,-1,3,-1,5,-1,-1],"loss_changes":[1.097057E-1,0E0,2.806196E-1,0E0,8.999843E-3,0E0,0E0],"parents":[2147483647,0,0,2,2,4,4],"right_children":[2,-1,4,-1,6,-1,-1],"split_conditions":[6.388889E-1,-5.464077E-2,8.666667E-1,1.0446871E-1,9.259259E-1,-3.8740408E-2,-3.6690228E-3],"split_indices":[0,0,2,0,2,0,0],"split_type":[0,0,0,0,0,0,0],"sum_hessian":[5.424386E0,1.2450479E0,4.179338E0,1.3052983E0,2.8740396E0,1.7002821E0,1.1737577E0],"tree_param":{"num_deleted":"0","num_feature":"6","num_nodes":"7","size_leaf_vector":"1"}},{"base_weights":[2.77E-3,-4.115738E-2,1.0182469E-1,4.4078045E-2,-3.0732187E-3],"categories":[],"categories_nodes":[],"categories_segments":[],"categories_sizes":[],"default_left":[0,0,0,0,0],"id":48,"left_children":[1,-1,3,-1,-1],"loss_changes":[1.0266925E-1,0E0,2.3342945E-2,0E0,0E0],"parents":[2147483647,0,0,2,2],"right_children":[2,-1,4,-1,-1],"split_conditions":[8.333333E-1,-4.115738E-2,9.259259E-1,4.4078045E-2,-3.0732187E-3],"split_indices":[0,0,2,0,0],"split_type":[0,0,0,0,0],"sum_hessian":[5.397932E0,2.0774927E0,3.3204393E0,2.145814E0,1.1746253E0],"tree_param":{"num_deleted":"0","num_feature":"6","num_nodes":"5","size_leaf_vector":"1"}},{"base_weights":[1.7877823E-3,5.2430645E-2,-8.096425E-2,-7.041728E-2,5.1199183E-2,2.5586462E-2,-2.5742387E-3],"categories":[],"categories_nodes":[],"categories_segments":[],"categories_sizes":[],"default_left":[0,0,0,0,0,0,0],"id":49,"left_children":[1,-1,3,-1,5,-1,-1],"loss_changes":[1.04651175E-1,0E0,1.1281014E-1,0E0,7.840244E-3,0E0,0E0],"parents":[2147483647,0,0,2,2,4,4],"right_children":[2,-1,4,-1,6,-1,-1],"split_conditions":[6.507937E-1,5.2430645E-2,8.888889E-1,-7.041728E-2,9.259259E-1,2.5586462E-2,-2.5742387E-3],"split_indices":[0,0,2,0,2,0,0],"split_type":[0,0,0,0,0,0,0],"sum_hessian":[5.322327E0,1.3624231E0,3.959904E0,1.4717005E0,2.4882035E0,1.3128564E0,1.175347E0],"tree_param":{"num_deleted":"0","num_feature":"6","num_nodes":"7","size_leaf_vector":"1"}},{"base_weights":[1.7091252E-3,-4.84357E-2,7.1246676E-2,9.7065896E-2,-9.714347E-2,-4.018161E-2,-2.156255E-3],"categories":[],"categories_nodes":[],"categories_segments":[],"categories_sizes":[],"default_left":[0,0,0,0,0,0,0],"id":50,"left_children":[1,-1,3,-1,5,-1,-1],"loss_changes":[8.355069E-2,0E0,2.500784E-1,0E0,1.1798937E-2,0E0,0E0],"parents":[2147483647,0,0,2,2,4,4],"right_children":[2,-1,4,-1,6,-1,-1],"split_conditions":[6.388889E-1,-4.84357E-2,8.666667E-1,9.7065896E-2,9.259259E-1,-4.018161E-2,-2.156255E-3],"split_indices":[0,0,2,0,2,0,0],"split_type":[0,0,0,0,0,0,0],"sum_hessian":[5.350143E0,1.2037915E0,4.1463513E0,1.2908165E0,2.855535E0,1.679587E0,1.175948E0],"tree_param":{"num_deleted":"0","num_feature":"6","num_nodes":"7","size_leaf_vector":"1"}},{"base_weights":[1.8563071E-3,-3.839121E-2,9.35899E-2,5.0596792E-2,1.8115668E-2,1.0396582E-2,-1.8061906E-3],"categories":[],"categories_nodes":[],"categories_segments":[],"categories_sizes":[],"default_left":[0,0,0,0,0,0,0],"id":51,"left_children":[1,-1,3,-1,5,-1,-1],"loss_changes":[8.7337606E-2,0E0,2.122419E-2,0E0,1.5089603E-3,0E0,0E0],"parents":[2147483647,0,0,2,2,4,4],"right_children":[2,-1,4,-1,6,-1,-1],"split_conditions":[8.333333E-1,-3.839121E-2,8.974359E-1,5.0596792E-2,9.259259E-1,1.0396582E-2,-1.8061906E-3],"split_indices":[0,0,2,0,2,0,0],"split_type":[0,0,0,0,0,0,0],"sum_hessian":[5.3277936E0,2.0423331E0,3.2854605E0,1.0282023E0,2.2572582E0,1.0808091E0,1.176449E0],"tree_param":{"num_deleted":"0","num_feature":"6","num_nodes":"7","size_leaf_vector":"1"}},{"base_weights":[4.5065274E-3,5.4928634E-2,-8.1377275E-2,-7.2503224E-2,5.4047935E-2,2.5913585E-2,-1.5129638E-3],"categories":[],"categories_nodes":[],"categories_segments":[],"categories_sizes":[],"default_left":[0,0,0,0,0,0,0],"id":52,"left_children":[1,-1,3,-1,5,-1,-1],"loss_changes":[1.1091349E-1,0E0,1.1985561E-1,0E0,7.0913294E-3,0E0,0E0],"parents":[2147483647,0,0,2,2,4,4],"right_children":[2,-1,4,-1,6,-1,-1],"split_conditions":[6.507937E-1,5.4928634E-2,8.888889E-1,-7.2503224E-2,9.259259E-1,2.5913585E-2,-1.5129638E-3],"split_indices":[0,0,2,0,2,0,0],"split_type":[0,0,0,0,0,0,0],"sum_hessian":[5.2598996E0,1.3405108E0,3.9193888E0,1.4355613E0,2.4838276E0,1.3069608E0,1.1768668E0],"tree_param":{"num_deleted":"0","num_feature":"6","num_nodes":"7","size_leaf_vector":"1"}},{"base_weights":[3.8714325E-3,-7.5778045E-2,4.135243E-2,-8.785354E-2,1.2300284E-1,5.164178E-2,4.76123E-3],"categories":[],"categories_nodes":[],"categories_segments":[],"categories_sizes":[],"default_left":[0,0,0,0,0,0,0],"id":53,"left_children":[1,3,-1,-1,5,-1,-1],"loss_changes":[7.754157E-2,2.3401749E-1,0E0,0E0,1.3583794E-2,0E0,0E0],"parents":[2147483647,0,0,1,1,4,4],"right_children":[2,4,-1,-1,6,-1,-1],"split_conditions":[9.3333334E-1,8.333333E-1,4.135243E-2,-8.785354E-2,8.974359E-1,5.164178E-2,4.76123E-3],"split_indices":[2,0,0,0,2,0,0],"split_type":[0,0,0,0,0,0,0],"sum_hessian":[5.287928E0,3.5886974E0,1.6992308E0,1.4892467E0,2.0994506E0,1.0233114E0,1.0761393E0],"tree_param":{"num_deleted":"0","num_feature":"6","num_nodes":"7","size_leaf_vector":"1"}},{"base_weights":[3.702321E-3,5.169584E-2,-7.924172E-2,-6.106114E-2,2.8892606E-2,2.0630471E-2,-7.983584E-3],"categories":[],"categories_nodes":[],"categories_segments":[],"categories_sizes":[],"default_left":[0,0,0,0,0,0,0],"id":54,"left_children":[1,-1,3,-1,5,-1,-1],"loss_changes":[1.00174956E-1,0E0,7.081978E-2,0E0,9.486772E-3,0E0,0E0],"parents":[2147483647,0,0,2,2,4,4],"right_children":[2,-1,4,-1,6,-1,-1],"split_conditions":[6.507937E-1,5.169584E-2,8.888889E-1,-6.106114E-2,9.259259E-1,2.0630471E-2,-7.983584E-3],"split_indices":[0,0,2,0,2,0,0],"split_type":[0,0,0,0,0,0,0],"sum_hessian":[5.186285E0,1.3547243E0,3.8315606E0,1.3721156E0,2.459445E0,1.2921628E0,1.1672822E0],"tree_param":{"num_deleted":"0","num_feature":"6","num_nodes":"7","size_leaf_vector":"1"}},{"base_weights":[2.8192746E-3,-4.7282644E-2,7.2025985E-2,1.05183415E-1,-1.0842363E-1,-4.141342E-2,-6.6864067E-3],"categories":[],"categories_nodes":[],"categories_segments":[],"categories_sizes":[],"default_left":[0,0,0,0,0,0,0],"id":55,"left_children":[1,-1,3,-1,5,-1,-1],"loss_changes":[8.0394775E-2,0E0,2.9091477E-1,0E0,6.661933E-3,0E0,0E0],"parents":[2147483647,0,0,2,2,4,4],"right_children":[2,-1,4,-1,6,-1,-1],"split_conditions":[6.388889E-1,-4.7282644E-2,8.666667E-1,1.05183415E-1,9.259259E-1,-4.141342E-2,-6.6864067E-3],"split_indices":[0,0,2,0,2,0,0],"split_type":[0,0,0,0,0,0,0],"sum_hessian":[5.218564E0,1.1877884E0,4.0307755E0,1.2138293E0,2.8169463E0,1.647682E0,1.1692642E0],"tree_param":{"num_deleted":"0","num_feature":"6","num_nodes":"7","size_leaf_vector":"1"}},{"base_weights":[3.2329771E-3,4.6346016E-2,-7.171734E-2,-6.2300883E-2,4.1536544E-2,2.4111614E-2,-5.600197E-3],"categories":[],"categories_nodes":[],"categories_segments":[],"categories_sizes":[],"default_left":[0,0,0,0,0,0,0],"id":56,"left_children":[1,-1,3,-1,5,-1,-1],"loss_changes":[8.134052E-2,0E0,8.295025E-2,0E0,9.605732E-3,0E0,0E0],"parents":[2147483647,0,0,2,2,4,4],"right_children":[2,-1,4,-1,6,-1,-1],"split_conditions":[6.507937E-1,4.6346016E-2,8.888889E-1,-6.2300883E-2,9.259259E-1,2.4111614E-2,-5.600197E-3],"split_indices":[0,0,2,0,2,0,0],"split_type":[0,0,0,0,0,0,0],"sum_hessian":[5.1977735E0,1.3706136E0,3.82716E0,1.3604199E0,2.4667401E0,1.2958394E0,1.1709007E0],"tree_param":{"num_deleted":"0","num_feature":"6","num_nodes":"7","size_leaf_vector":"1"}},{"base_weights":[2.415488E-3,-4.7148664E-2,7.124642E-2,9.4126366E-2,-8.954856E-2,-3.4954313E-2,-4.690599E-3],"categories":[],"categories_nodes":[],"categories_segments":[],"categories_sizes":[],"default_left":[0,0,0,0,0,0,0],"id":57,"left_children":[1,-1,3,-1,5,-1,-1],"loss_changes":[7.953909E-2,0E0,2.2443473E-1,0E0,5.763281E-3,0E0,0E0],"parents":[2147483647,0,0,2,2,4,4],"right_children":[2,-1,4,-1,6,-1,-1],"split_conditions":[6.388889E-1,-4.7148664E-2,8.666667E-1,9.4126366E-2,9.259259E-1,-3.4954313E-2,-4.690599E-3],"split_indices":[0,0,2,0,2,0,0],"split_type":[0,0,0,0,0,0,0],"sum_hessian":[5.222012E0,1.1869283E0,4.035084E0,1.2295012E0,2.8055823E0,1.6333275E0,1.1722548E0],"tree_param":{"num_deleted":"0","num_feature":"6","num_nodes":"7","size_leaf_vector":"1"}},{"base_weights":[2.587449E-3,-3.542897E-2,8.744159E-2,3.9164796E-2,-3.9287973E-3],"categories":[],"categories_nodes":[],"categories_segments":[],"categories_sizes":[],"default_left":[0,0,0,0,0],"id":58,"left_children":[1,-1,3,-1,-1],"loss_changes":[7.379698E-2,0E0,1.9971933E-2,0E0,0E0],"parents":[2147483647,0,0,2,2],"right_children":[2,-1,4,-1,-1],"split_conditions":[8.333333E-1,-3.542897E-2,9.259259E-1,3.9164796E-2,-3.9287973E-3],"split_indices":[0,0,2,0,0],"split_type":[0,0,0,0,0],"sum_hessian":[5.197958E0,1.9841857E0,3.2137725E0,2.0403953E0,1.1733773E0],"tree_param":{"num_deleted":"0","num_feature":"6","num_nodes":"5","size_leaf_vector":"1"}},{"base_weights":[1.6959237E-3,4.8994675E-2,-7.7784926E-2,-6.45311E-2,3.71011E-2,1.997425E-2,-3.2908353E-3],"categories":[],"categories_nodes":[],"categories_segments":[],"categories_sizes":[],"default_left":[0,0,0,0,0,0,0],"id":59,"left_children":[1,-1,3,-1,5,-1,-1],"loss_changes":[9.152572E-2,0E0,8.355795E-2,0E0,5.635352E-3,0E0,0E0],"parents":[2147483647,0,0,2,2,4,4],"right_children":[2,-1,4,-1,6,-1,-1],"split_conditions":[6.507937E-1,4.8994675E-2,8.888889E-1,-6.45311E-2,9.259259E-1,1.997425E-2,-3.2908353E-3],"split_indices":[0,0,2,0,2,0,0],"split_type":[0,0,0,0,0,0,0],"sum_hessian":[5.1360946E0,1.3454407E0,3.790654E0,1.3293784E0,2.4612756E0,1.2869663E0,1.1743091E0],"tree_param":{"num_deleted":"0","num_feature":"6","num_nodes":"7","size_leaf_vector":"1"}},{"base_weights":[1.0916742E-3,-7.279296E-2,3.6431536E-2,-8.301909E-2,3.4106057E-2],"categories":[],"categories_nodes":[],"categories_segments":[],"categories_sizes":[],"default_left":[0,0,0,0,0],"id":60,"left_children":[1,3,-1,-1,-1],"loss_changes":[6.362013E-2,2.0040877E-1,0E0,0E0,0E0],"parents":[2147483647,0,0,1,1],"right_children":[2,4,-1,-1,-1],"split_conditions":[9.3333334E-1,8.333333E-1,3.6431536E-2,-8.301909E-2,3.4106057E-2],"split_indices":[2,0,0,0,0],"split_type":[0,0,0,0,0],"sum_hessian":[5.1607766E0,3.4424744E0,1.7183025E0,1.4131078E0,2.0293665E0],"tree_param":{"num_deleted":"0","num_feature":"6","num_nodes":"5","size_leaf_vector":"1"}},{"base_weights":[-1.8395552E-3,4.6379592E-2,-7.9702504E-2,-5.307215E-2,7.838254E-3,1.1834663E-2,-8.674457E-3],"categories":[],"categories_nodes":[],"categories_segments":[],"categories_sizes":[],"default_left":[0,0,0,0,0,0,0],"id":61,"left_children":[1,-1,3,-1,5,-1,-1],"loss_changes":[8.624918E-2,0E0,4.148373E-2,0E0,5.1335767E-3,0E0,0E0],"parents":[2147483647,0,0,2,2,4,4],"right_children":[2,-1,4,-1,6,-1,-1],"split_conditions":[6.507937E-1,4.6379592E-2,8.888889E-1,-5.307215E-2,9.259259E-1,1.1834663E-2,-8.674457E-3],"split_indices":[0,0,2,0,2,0,0],"split_type":[0,0,0,0,0,0,0],"sum_hessian":[5.0691957E0,1.3570863E0,3.7121096E0,1.2752386E0,2.436871E0,1.2706565E0,1.1662145E0],"tree_param":{"num_deleted":"0","num_feature":"6","num_nodes":"7","size_leaf_vector":"1"}},{"base_weights":[-2.0839612E-3,-4.546473E-2,6.403714E-2,1.007131E-1,-1.0931772E-1,-4.1486293E-2,-7.264852E-3],"categories":[],"categories_nodes":[],"categories_segments":[],"categories_sizes":[],"default_left":[0,0,0,0,0,0,0],"id":62,"left_children":[1,-1,3,-1,5,-1,-1],"loss_changes":[6.997813E-2,0E0,2.689405E-1,0E0,5.932644E-3,0E0,0E0],"parents":[2147483647,0,0,2,2,4,4],"right_children":[2,-1,4,-1,6,-1,-1],"split_conditions":[6.388889E-1,-4.546473E-2,8.666667E-1,1.007131E-1,9.259259E-1,-4.1486293E-2,-7.264852E-3],"split_indices":[0,0,2,0,2,0,0],"split_type":[0,0,0,0,0,0,0],"sum_hessian":[5.0988145E0,1.1675661E0,3.9312482E0,1.1665456E0,2.7647026E0,1.5963184E0,1.1683841E0],"tree_param":{"num_deleted":"0","num_feature":"6","num_nodes":"7","size_leaf_vector":"1"}},{"base_weights":[-6.6427875E-4,4.168722E-2,-7.066187E-2,-5.5154033E-2,2.4174718E-2,1.678014E-2,-6.08461E-3],"categories":[],"categories_nodes":[],"categories_segments":[],"categories_sizes":[],"default_left":[0,0,0,0,0,0,0],"id":63,"left_children":[1,-1,3,-1,5,-1,-1],"loss_changes":[6.920978E-2,0E0,5.500804E-2,0E0,6.001033E-3,0E0,0E0],"parents":[2147483647,0,0,2,2,4,4],"right_children":[2,-1,4,-1,6,-1,-1],"split_conditions":[6.507937E-1,4.168722E-2,8.888889E-1,-5.5154033E-2,9.259259E-1,1.678014E-2,-6.08461E-3],"split_indices":[0,0,2,0,2,0,0],"split_type":[0,0,0,0,0,0,0],"sum_hessian":[5.076915E0,1.366344E0,3.7105708E0,1.2637526E0,2.4468184E0,1.2766448E0,1.1701735E0],"tree_param":{"num_deleted":"0","num_feature":"6","num_nodes":"7","size_leaf_vector":"1"}},{"base_weights":[-1.1135067E-3,-4.492512E-2,6.430182E-2,8.965176E-2,-8.8819265E-2,-3.4442723E-2,-5.096205E-3],"categories":[],"categories_nodes":[],"categories_segments":[],"categories_sizes":[],"default_left":[0,0,0,0,0,0,0],"id":64,"left_children":[1,-1,3,-1,5,-1,-1],"loss_changes":[6.8927646E-2,0E0,2.0375367E-1,0E0,5.0623417E-3,0E0,0E0],"parents":[2147483647,0,0,2,2,4,4],"right_children":[2,-1,4,-1,6,-1,-1],"split_conditions":[6.388889E-1,-4.492512E-2,8.666667E-1,8.965176E-2,9.259259E-1,-3.4442723E-2,-5.096205E-3],"split_indices":[0,0,2,0,2,0,0],"split_type":[0,0,0,0,0,0,0],"sum_hessian":[5.098696E0,1.1641918E0,3.9345045E0,1.1781955E0,2.756309E0,1.5846562E0,1.1716528E0],"tree_param":{"num_deleted":"0","num_feature":"6","num_nodes":"7","size_leaf_vector":"1"}},{"base_weights":[-1.6792366E-4,-3.335475E-2,7.8223936E-2,3.583947E-2,-4.2685196E-3],"categories":[],"categories_nodes":[],"categories_segments":[],"categories_sizes":[],"default_left":[0,0,0,0,0],"id":65,"left_children":[1,-1,3,-1,-1],"loss_changes":[6.1558563E-2,0E0,1.7512318E-2,0E0,0E0],"parents":[2147483647,0,0,2,2],"right_children":[2,-1,4,-1,-1],"split_conditions":[8.333333E-1,-3.335475E-2,9.259259E-1,3.583947E-2,-4.2685196E-3],"split_indices":[0,0,2,0,0],"split_type":[0,0,0,0,0],"sum_hessian":[5.074185E0,1.9269892E0,3.1471956E0,1.9743177E0,1.172878E0],"tree_param":{"num_deleted":"0","num_feature":"6","num_nodes":"5","size_leaf_vector":"1"}},{"base_weights":[-5.01658E-4,4.4357114E-2,-7.455856E-2,-5.779959E-2,2.3761654E-2,1.42393885E-2,-3.5753339E-3],"categories":[],"categories_nodes":[],"categories_segments":[],"categories_sizes":[],"default_left":[0,0,0,0,0,0,0],"id":66,"left_children":[1,-1,3,-1,5,-1,-1],"loss_changes":[7.714776E-2,0E0,5.891461E-2,0E0,3.4780588E-3,0E0,0E0],"parents":[2147483647,0,0,2,2,4,4],"right_children":[2,-1,4,-1,6,-1,-1],"split_conditions":[6.507937E-1,4.4357114E-2,8.888889E-1,-5.779959E-2,9.259259E-1,1.42393885E-2,-3.5753339E-3],"split_indices":[0,0,2,0,2,0,0],"split_type":[0,0,0,0,0,0,0],"sum_hessian":[5.01837E0,1.3391364E0,3.6792336E0,1.2355114E0,2.4437222E0,1.2698277E0,1.1738944E0],"tree_param":{"num_deleted":"0","num_feature":"6","num_nodes":"7","size_leaf_vector":"1"}},{"base_weights":[-1.030039E-3,-7.193261E-2,3.329686E-2,-7.9463825E-2,3.1425502E-2],"categories":[],"categories_nodes":[],"categories_segments":[],"categories_sizes":[],"default_left":[0,0,0,0,0],"id":67,"left_children":[1,3,-1,-1,-1],"loss_changes":[5.595878E-2,1.7453349E-1,0E0,0E0,0E0],"parents":[2147483647,0,0,1,1],"right_children":[2,4,-1,-1,-1],"split_conditions":[9.3333334E-1,8.333333E-1,3.329686E-2,-7.9463825E-2,3.1425502E-2],"split_indices":[2,0,0,0,0],"split_type":[0,0,0,0,0],"sum_hessian":[5.0403113E0,3.3057806E0,1.7345307E0,1.3415656E0,1.964215E0],"tree_param":{"num_deleted":"0","num_feature":"6","num_nodes":"5","size_leaf_vector":"1"}},{"base_weights":[-3.688076E-3,4.215886E-2,-7.63963E-2,-4.7577597E-2,-1.5270904E-3,7.3783393E-3,-8.403495E-3],"categories":[],"categories_nodes":[],"categories_segments":[],"categories_sizes":[],"default_left":[0,0,0,0,0,0,0],"id":68,"left_children":[1,-1,3,-1,5,-1,-1],"loss_changes":[7.321639E-2,0E0,2.8122675E-2,0E0,3.0562202E-3,0E0,0E0],"parents":[2147483647,0,0,2,2,4,4],"right_children":[2,-1,4,-1,6,-1,-1],"split_conditions":[6.507937E-1,4.215886E-2,8.888889E-1,-4.7577597E-2,9.259259E-1,7.3783393E-3,-8.403495E-3],"split_indices":[0,0,2,0,2,0,0],"split_type":[0,0,0,0,0,0,0],"sum_hessian":[4.958575E0,1.3493454E0,3.6092293E0,1.1873907E0,2.4218388E0,1.2552044E0,1.1666342E0],"tree_param":{"num_deleted":"0","num_feature":"6","num_nodes":"7","size_leaf_vector":"1"}},{"base_weights":[-3.8250345E-3,-4.300962E-2,5.8749042E-2,9.47436E-2,-1.03525564E-1,-3.9299E-2,-7.038017E-3],"categories":[],"categories_nodes":[],"categories_segments":[],"categories_sizes":[],"default_left":[0,0,0,0,0,0,0],"id":69,"left_children":[1,-1,3,-1,5,-1,-1],"loss_changes":[6.0682274E-2,0E0,2.3465545E-1,0E0,5.1112026E-3,0E0,0E0],"parents":[2147483647,0,0,2,2,4,4],"right_children":[2,-1,4,-1,6,-1,-1],"split_conditions":[6.388889E-1,-4.300962E-2,8.666667E-1,9.47436E-2,9.259259E-1,-3.9299E-2,-7.038017E-3],"split_indices":[0,0,2,0,2,0,0],"split_type":[0,0,0,0,0,0,0],"sum_hessian":[4.9851165E0,1.1436478E0,3.8414686E0,1.120423E0,2.7210455E0,1.5523155E0,1.16873E0],"tree_param":{"num_deleted":"0","num_feature":"6","num_nodes":"7","size_leaf_vector":"1"}},{"base_weights":[-1.9934631E-3,3.7936773E-2,-6.715122E-2,-4.9967524E-2,1.5439405E-2,1.2683984E-2,-5.8946274E-3],"categories":[],"categories_nodes":[],"categories_segments":[],"categories_sizes":[],"default_left":[0,0,0,0,0,0,0],"id":70,"left_children":[1,-1,3,-1,5,-1,-1],"loss_changes":[5.83954E-2,0E0,4.041241E-2,0E0,4.063553E-3,0E0,0E0],"parents":[2147483647,0,0,2,2,4,4],"right_children":[2,-1,4,-1,6,-1,-1],"split_conditions":[6.507937E-1,3.7936773E-2,8.888889E-1,-4.9967524E-2,9.259259E-1,1.2683984E-2,-5.8946274E-3],"split_indices":[0,0,2,0,2,0,0],"split_type":[0,0,0,0,0,0,0],"sum_hessian":[4.9625897E0,1.3535302E0,3.6090598E0,1.1764247E0,2.432635E0,1.2621758E0,1.1704593E0],"tree_param":{"num_deleted":"0","num_feature":"6","num_nodes":"7","size_leaf_vector":"1"}},{"base_weights":[-2.4241016E-3,-4.2286005E-2,5.927291E-2,8.426564E-2,-8.3632156E-2,-3.2435652E-2,-4.93718E-3],"categories":[],"categories_nodes":[],"categories_segments":[],"categories_sizes":[],"default_left":[0,0,0,0,0,0,0],"id":71,"left_children":[1,-1,3,-1,5,-1,-1],"loss_changes":[5.948048E-2,0E0,1.7685348E-1,0E0,4.330883E-3,0E0,0E0],"parents":[2147483647,0,0,2,2,4,4],"right_children":[2,-1,4,-1,6,-1,-1],"split_conditions":[6.388889E-1,-4.2286005E-2,8.666667E-1,8.426564E-2,9.259259E-1,-3.2435652E-2,-4.93718E-3],"split_indices":[0,0,2,0,2,0,0],"split_type":[0,0,0,0,0,0,0],"sum_hessian":[4.981832E0,1.1392503E0,3.842582E0,1.1279126E0,2.7146692E0,1.5427802E0,1.1718892E0],"tree_param":{"num_deleted":"0","num_feature":"6","num_nodes":"7","size_leaf_vector":"1"}},{"base_weights":[-1.1193176E-3,-3.1695385E-2,7.253737E-2,3.360278E-2,-4.1353162E-3],"categories":[],"categories_nodes":[],"categories_segments":[],"categories_sizes":[],"default_left":[0,0,0,0,0],"id":72,"left_children":[1,-1,3,-1,-1],"loss_changes":[5.353205E-2,0E0,1.5471967E-2,0E0,0E0],"parents":[2147483647,0,0,2,2],"right_children":[2,-1,4,-1,-1],"split_conditions":[8.333333E-1,-3.1695385E-2,9.259259E-1,3.360278E-2,-4.1353162E-3],"split_indices":[0,0,2,0,0],"split_type":[0,0,0,0,0],"sum_hessian":[4.957337E0,1.8696278E0,3.0877092E0,1.9146353E0,1.173074E0],"tree_param":{"num_deleted":"0","num_feature":"6","num_nodes":"5","size_leaf_vector":"1"}},{"base_weights":[-1.2414154E-3,4.0579252E-2,-7.025652E-2,-5.271297E-2,1.6330233E-2,1.07851885E-2,-3.4637505E-3],"categories":[],"categories_nodes":[],"categories_segments":[],"categories_sizes":[],"default_left":[0,0,0,0,0,0,0],"id":73,"left_children":[1,-1,3,-1,5,-1,-1],"loss_changes":[6.514737E-2,0E0,4.469942E-2,0E0,2.2914014E-3,0E0,0E0],"parents":[2147483647,0,0,2,2,4,4],"right_children":[2,-1,4,-1,6,-1,-1],"split_conditions":[6.507937E-1,4.0579252E-2,8.888889E-1,-5.271297E-2,9.259259E-1,1.07851885E-2,-3.4637505E-3],"split_indices":[0,0,2,0,2,0,0],"split_type":[0,0,0,0,0,0,0],"sum_hessian":[4.906432E0,1.3252624E0,3.5811698E0,1.1505862E0,2.4305837E0,1.2565264E0,1.1740572E0],"tree_param":{"num_deleted":"0","num_feature":"6","num_nodes":"7","size_leaf_vector":"1"}},{"base_weights":[-1.8565147E-3,-7.04328E-2,3.091547E-2,-7.657691E-2,2.950956E-2],"categories":[],"categories_nodes":[],"categories_segments":[],"categories_sizes":[],"default_left":[0,0,0,0,0],"id":74,"left_children":[1,3,-1,-1,-1],"loss_changes":[4.9889598E-2,1.5543456E-1,0E0,0E0,0E0],"parents":[2147483647,0,0,1,1],"right_children":[2,4,-1,-1,-1],"split_conditions":[9.3333334E-1,8.333333E-1,3.091547E-2,-7.657691E-2,2.950956E-2],"split_indices":[2,0,0,0,0],"split_type":[0,0,0,0,0],"sum_hessian":[4.9257956E0,3.1774104E0,1.748385E0,1.2722135E0,1.9051969E0],"tree_param":{"num_deleted":"0","num_feature":"6","num_nodes":"5","size_leaf_vector":"1"}},{"base_weights":[-4.4965795E-3,3.866963E-2,-7.243652E-2,-3.4054697E-2,7.408153E-3],"categories":[],"categories_nodes":[],"categories_segments":[],"categories_sizes":[],"default_left":[0,0,0,0,0],"id":75,"left_children":[1,-1,3,-1,-1],"loss_changes":[6.2378332E-2,0E0,2.0829618E-2,0E0,0E0],"parents":[2147483647,0,0,2,2],"right_children":[2,-1,4,-1,-1],"split_conditions":[6.507937E-1,3.866963E-2,8.666667E-1,-3.4054697E-2,7.408153E-3],"split_indices":[0,0,0,0,0],"split_type":[0,0,0,0,0],"sum_hessian":[4.8525996E0,1.3347212E0,3.5178783E0,2.3537273E0,1.1641508E0],"tree_param":{"num_deleted":"0","num_feature":"6","num_nodes":"5","size_leaf_vector":"1"}},{"base_weights":[-1.2140365E-3,-4.0318485E-2,5.8361337E-2,8.696738E-2,-8.756899E-2,-3.4279186E-2,-4.865068E-3],"categories":[],"categories_nodes":[],"categories_segments":[],"categories_sizes":[],"default_left":[0,0,0,0,0,0,0],"id":76,"left_children":[1,-1,3,-1,5,-1,-1],"loss_changes":[5.446361E-2,0E0,1.8611029E-1,0E0,5.1676333E-3,0E0,0E0],"parents":[2147483647,0,0,2,2,4,4],"right_children":[2,-1,4,-1,6,-1,-1],"split_conditions":[6.388889E-1,-4.0318485E-2,8.666667E-1,8.696738E-2,9.259259E-1,-3.4279186E-2,-4.865068E-3],"split_indices":[0,0,2,0,2,0,0],"split_type":[0,0,0,0,0,0,0],"sum_hessian":[4.875771E0,1.118803E0,3.7569678E0,1.071092E0,2.685876E0,1.5169355E0,1.1689404E0],"tree_param":{"num_deleted":"0","num_feature":"6","num_nodes":"7","size_leaf_vector":"1"}},{"base_weights":[2.6507094E-4,3.4871932E-2,-5.9743024E-2,-4.8821773E-2,2.1057455E-2,1.3544097E-2,-4.0759286E-3],"categories":[],"categories_nodes":[],"categories_segments":[],"categories_sizes":[],"default_left":[0,0,0,0,0,0,0],"id":77,"left_children":[1,-1,3,-1,5,-1,-1],"loss_changes":[4.767371E-2,0E0,4.102053E-2,0E0,3.4649305E-3,0E0,0E0],"parents":[2147483647,0,0,2,2,4,4],"right_children":[2,-1,4,-1,6,-1,-1],"split_conditions":[6.507937E-1,3.4871932E-2,8.888889E-1,-4.8821773E-2,9.259259E-1,1.3544097E-2,-4.0759286E-3],"split_indices":[0,0,2,0,2,0,0],"split_type":[0,0,0,0,0,0,0],"sum_hessian":[4.852383E0,1.3350772E0,3.5173059E0,1.1004618E0,2.416844E0,1.2467479E0,1.1700962E0],"tree_param":{"num_deleted":"0","num_feature":"6","num_nodes":"7","size_leaf_vector":"1"}},{"base_weights":[-7.1213016E-4,-3.9542876E-2,5.774895E-2,7.7874884E-2,-7.178798E-2,-2.8637785E-2,-3.4148386E-3],"categories":[],"categories_nodes":[],"categories_segments":[],"categories_sizes":[],"default_left":[0,0,0,0,0,0,0],"id":78,"left_children":[1,-1,3,-1,5,-1,-1],"loss_changes":[5.2580982E-2,0E0,1.4290915E-1,0E0,4.1732136E-3,0E0,0E0],"parents":[2147483647,0,0,2,2,4,4],"right_children":[2,-1,4,-1,6,-1,-1],"split_conditions":[6.388889E-1,-3.9542876E-2,8.666667E-1,7.7874884E-2,9.259259E-1,-2.8637785E-2,-3.4148386E-3],"split_indices":[0,0,2,0,2,0,0],"split_type":[0,0,0,0,0,0,0],"sum_hessian":[4.867502E0,1.1142255E0,3.7532768E0,1.0747533E0,2.6785235E0,1.507468E0,1.1710556E0],"tree_param":{"num_deleted":"0","num_feature":"6","num_nodes":"7","size_leaf_vector":"1"}},{"base_weights":[4.2595787E-4,-3.021445E-2,7.090753E-2,3.2167196E-2,-2.8609775E-3],"categories":[],"categories_nodes":[],"categories_segments":[],"categories_sizes":[],"default_left":[0,0,0,0,0],"id":79,"left_children":[1,-1,3,-1,-1],"loss_changes":[4.8793163E-2,0E0,1.2796583E-2,0E0,0E0],"parents":[2147483647,0,0,2,2],"right_children":[2,-1,4,-1,-1],"split_conditions":[8.333333E-1,-3.021445E-2,9.259259E-1,3.2167196E-2,-2.8609775E-3],"split_indices":[0,0,2,0,0],"split_type":[0,0,0,0,0],"sum_hessian":[4.842935E0,1.8127267E0,3.0302083E0,1.858355E0,1.1718533E0],"tree_param":{"num_deleted":"0","num_feature":"6","num_nodes":"5","size_leaf_vector":"1"}},{"base_weights":[8.008468E-5,3.7477802E-2,-6.407809E-2,-5.0987873E-2,1.9101864E-2,1.1052934E-2,-2.397026E-3],"categories":[],"categories_nodes":[],"categories_segments":[],"categories_sizes":[],"default_left":[0,0,0,0,0,0,0],"id":80,"left_children":[1,-1,3,-1,5,-1,-1],"loss_changes":[5.443333E-2,0E0,4.2788696E-2,0E0,1.9350083E-3,0E0,0E0],"parents":[2147483647,0,0,2,2,4,4],"right_children":[2,-1,4,-1,6,-1,-1],"split_conditions":[6.507937E-1,3.7477802E-2,8.888889E-1,-5.0987873E-2,9.259259E-1,1.1052934E-2,-2.397026E-3],"split_indices":[0,0,2,0,2,0,0],"split_type":[0,0,0,0,0,0,0],"sum_hessian":[4.796376E0,1.3066328E0,3.4897437E0,1.0763543E0,2.4133892E0,1.240872E0,1.1725173E0],"tree_param":{"num_deleted":"0","num_feature":"6","num_nodes":"7","size_leaf_vector":"1"}},{"base_weights":[-9.310182E-4,-6.8249755E-2,2.9499933E-2,-7.3926024E-2,2.806215E-2],"categories":[],"categories_nodes":[],"categories_segments":[],"categories_sizes":[],"default_left":[0,0,0,0,0],"id":81,"left_children":[1,3,-1,-1,-1],"loss_changes":[4.5549944E-2,1.3990209E-1,0E0,0E0,0E0],"parents":[2147483647,0,0,1,1],"right_children":[2,4,-1,-1,-1],"split_conditions":[9.3333334E-1,8.333333E-1,2.9499933E-2,-7.3926024E-2,2.806215E-2],"split_indices":[2,0,0,0,0],"split_type":[0,0,0,0,0],"sum_hessian":[4.8121495E0,3.0536644E0,1.7584851E0,1.2043259E0,1.8493385E0],"tree_param":{"num_deleted":"0","num_feature":"6","num_nodes":"5","size_leaf_vector":"1"}},{"base_weights":[-3.8748593E-3,3.5693068E-2,-6.72139E-2,-4.223841E-2,-3.273532E-3,5.1070806E-3,-6.793523E-3],"categories":[],"categories_nodes":[],"categories_segments":[],"categories_sizes":[],"default_left":[0,0,0,0,0,0,0],"id":82,"left_children":[1,-1,3,-1,5,-1,-1],"loss_changes":[5.2717093E-2,0E0,2.0386253E-2,0E0,1.7202294E-3,0E0,0E0],"parents":[2147483647,0,0,2,2,4,4],"right_children":[2,-1,4,-1,6,-1,-1],"split_conditions":[6.507937E-1,3.5693068E-2,8.888889E-1,-4.223841E-2,9.259259E-1,5.1070806E-3,-6.793523E-3],"split_indices":[0,0,2,0,2,0,0],"split_type":[0,0,0,0,0,0,0],"sum_hessian":[4.7471275E0,1.3160731E0,3.4310544E0,1.0364119E0,2.3946424E0,1.2285731E0,1.1660693E0],"tree_param":{"num_deleted":"0","num_feature":"6","num_nodes":"7","size_leaf_vector":"1"}},{"base_weights":[-4.2526163E-3,-3.769696E-2,5.1095143E-2,8.245367E-2,-8.701021E-2,-3.3416998E-2,-5.69127E-3],"categories":[],"categories_nodes":[],"categories_segments":[],"categories_sizes":[],"default_left":[0,0,0,0,0,0,0],"id":83,"left_children":[1,-1,3,-1,5,-1,-1],"loss_changes":[4.5171276E-2,0E0,1.682856E-1,0E0,3.9388333E-3,0E0,0E0],"parents":[2147483647,0,0,2,2,4,4],"right_children":[2,-1,4,-1,6,-1,-1],"split_conditions":[6.388889E-1,-3.769696E-2,8.666667E-1,8.245367E-2,9.259259E-1,-3.3416998E-2,-5.69127E-3],"split_indices":[0,0,2,0,2,0,0],"split_type":[0,0,0,0,0,0,0],"sum_hessian":[4.766979E0,1.0949421E0,3.6720371E0,1.0235785E0,2.6484585E0,1.48074E0,1.1677185E0],"tree_param":{"num_deleted":"0","num_feature":"6","num_nodes":"7","size_leaf_vector":"1"}},{"base_weights":[-2.1278595E-3,3.2182258E-2,-5.877361E-2,-4.422436E-2,1.126216E-2,9.773001E-3,-4.767958E-3],"categories":[],"categories_nodes":[],"categories_segments":[],"categories_sizes":[],"default_left":[0,0,0,0,0,0,0],"id":84,"left_children":[1,-1,3,-1,5,-1,-1],"loss_changes":[4.1903917E-2,0E0,2.916675E-2,0E0,2.4880986E-3,0E0,0E0],"parents":[2147483647,0,0,2,2,4,4],"right_children":[2,-1,4,-1,6,-1,-1],"split_conditions":[6.507937E-1,3.2182258E-2,8.888889E-1,-4.422436E-2,9.259259E-1,9.773001E-3,-4.767958E-3],"split_indices":[0,0,2,0,2,0,0],"split_type":[0,0,0,0,0,0,0],"sum_hessian":[4.744409E0,1.3136109E0,3.4307983E0,1.0266149E0,2.4041834E0,1.2351E0,1.1690832E0],"tree_param":{"num_deleted":"0","num_feature":"6","num_nodes":"7","size_leaf_vector":"1"}},{"base_weights":[-2.815982E-3,-3.691322E-2,5.1626887E-2,7.379503E-2,-7.0521995E-2,-2.7660934E-2,-3.994572E-3],"categories":[],"categories_nodes":[],"categories_segments":[],"categories_sizes":[],"default_left":[0,0,0,0,0,0,0],"id":85,"left_children":[1,-1,3,-1,5,-1,-1],"loss_changes":[4.4045538E-2,0E0,1.2817076E-1,0E0,3.291659E-3,0E0,0E0],"parents":[2147483647,0,0,2,2,4,4],"right_children":[2,-1,4,-1,6,-1,-1],"split_conditions":[6.388889E-1,-3.691322E-2,8.666667E-1,7.379503E-2,9.259259E-1,-2.7660934E-2,-3.994572E-3],"split_indices":[0,0,2,0,2,0,0],"split_type":[0,0,0,0,0,0,0],"sum_hessian":[4.758582E0,1.0904484E0,3.6681337E0,1.0243865E0,2.643747E0,1.4735324E0,1.1702147E0],"tree_param":{"num_deleted":"0","num_feature":"6","num_nodes":"7","size_leaf_vector":"1"}},{"base_weights":[-1.181423E-3,-2.865181E-2,6.440496E-2,2.9963998E-2,-3.346672E-3],"categories":[],"categories_nodes":[],"categories_segments":[],"categories_sizes":[],"default_left":[0,0,0,0,0],"id":86,"left_children":[1,-1,3,-1,-1],"loss_changes":[4.1630726E-2,0E0,1.1783013E-2,0E0,0E0],"parents":[2147483647,0,0,2,2],"right_children":[2,-1,4,-1,-1],"split_conditions":[8.333333E-1,-2.865181E-2,9.259259E-1,2.9963998E-2,-3.346672E-3],"split_indices":[0,0,2,0,0],"split_type":[0,0,0,0,0],"sum_hessian":[4.735098E0,1.7549655E0,2.9801323E0,1.8089783E0,1.171154E0],"tree_param":{"num_deleted":"0","num_feature":"6","num_nodes":"5","size_leaf_vector":"1"}},{"base_weights":[-1.2446283E-3,3.466078E-2,-6.1524358E-2,-4.6498038E-2,1.1633011E-2,8.0538E-3,-2.8039059E-3],"categories":[],"categories_nodes":[],"categories_segments":[],"categories_sizes":[],"default_left":[0,0,0,0,0,0,0],"id":87,"left_children":[1,-1,3,-1,5,-1,-1],"loss_changes":[4.7183383E-2,0E0,3.193984E-2,0E0,1.3368343E-3,0E0,0E0],"parents":[2147483647,0,0,2,2,4,4],"right_children":[2,-1,4,-1,6,-1,-1],"split_conditions":[6.507937E-1,3.466078E-2,8.888889E-1,-4.6498038E-2,9.259259E-1,8.0538E-3,-2.8039059E-3],"split_indices":[0,0,2,0,2,0,0],"split_type":[0,0,0,0,0,0,0],"sum_hessian":[4.6928916E0,1.2856076E0,3.407284E0,1.0048332E0,2.4024508E0,1.2305155E0,1.1719352E0],"tree_param":{"num_deleted":"0","num_feature":"6","num_nodes":"7","size_leaf_vector":"1"}},{"base_weights":[-2.1470757E-3,-6.7038E-2,2.7280835E-2,-7.141723E-2,2.6232477E-2],"categories":[],"categories_nodes":[],"categories_segments":[],"categories_sizes":[],"default_left":[0,0,0,0,0],"id":88,"left_children":[1,3,-1,-1,-1],"loss_changes":[4.05707E-2,1.24871396E-1,0E0,0E0,0E0],"parents":[2147483647,0,0,1,1],"right_children":[2,4,-1,-1,-1],"split_conditions":[9.3333334E-1,8.333333E-1,2.7280835E-2,-7.141723E-2,2.6232477E-2],"split_indices":[2,0,0,0,0],"split_type":[0,0,0,0,0],"sum_hessian":[4.707463E0,2.9386516E0,1.7688113E0,1.1378953E0,1.8007561E0],"tree_param":{"num_deleted":"0","num_feature":"6","num_nodes":"5","size_leaf_vector":"1"}},{"base_weights":[-5.008513E-3,3.3046596E-2,-6.4548E-2,-3.0027272E-2,6.2191924E-3],"categories":[],"categories_nodes":[],"categories_segments":[],"categories_sizes":[],"default_left":[0,0,0,0,0],"id":89,"left_children":[1,-1,3,-1,-1],"loss_changes":[4.584627E-2,0E0,1.5273701E-2,0E0,0E0],"parents":[2147483647,0,0,2,2],"right_children":[2,-1,4,-1,-1],"split_conditions":[6.507937E-1,3.3046596E-2,8.666667E-1,-3.0027272E-2,6.2191924E-3],"split_indices":[0,0,0,0,0],"split_type":[0,0,0,0,0],"sum_hessian":[4.6492805E0,1.2947663E0,3.3545144E0,2.2450976E0,1.1094166E0],"tree_param":{"num_deleted":"0","num_feature":"6","num_nodes":"5","size_leaf_vector":"1"}},{"base_weights":[-1.9486349E-3,-3.5159223E-2,5.0450187E-2,4.9512234E-2,-4.8184708E-2,-1.8355228E-2,-4.0497915E-3],"categories":[],"categories_nodes":[],"categories_segments":[],"categories_sizes":[],"default_left":[0,0,0,0,0,0,0],"id":90,"left_children":[1,-1,3,-1,5,-1,-1],"loss_changes":[4.0136885E-2,0E0,5.9888437E-2,0E0,6.36498E-4,0E0,0E0],"parents":[2147483647,0,0,2,2,4,4],"right_children":[2,-1,4,-1,6,-1,-1],"split_conditions":[6.388889E-1,-3.5159223E-2,8.974359E-1,4.9512234E-2,9.259259E-1,-1.8355228E-2,-4.0497915E-3],"split_indices":[0,0,2,0,2,0,0],"split_type":[0,0,0,0,0,0,0],"sum_hessian":[4.6672997E0,1.0722637E0,3.595036E0,1.3515747E0,2.2434614E0,1.0761645E0,1.1672969E0],"tree_param":{"num_deleted":"0","num_feature":"6","num_nodes":"7","size_leaf_vector":"1"}},{"base_weights":[-2.8962435E-3,3.0713122E-2,-5.759145E-2,-2.5475426E-2,3.5570452E-3],"categories":[],"categories_nodes":[],"categories_segments":[],"categories_sizes":[],"default_left":[0,0,0,0,0],"id":91,"left_children":[1,-1,3,-1,-1],"loss_changes":[3.8416207E-2,0E0,9.275098E-3,0E0,0E0],"parents":[2147483647,0,0,2,2],"right_children":[2,-1,4,-1,-1],"split_conditions":[6.507937E-1,3.0713122E-2,8.666667E-1,-2.5475426E-2,3.5570452E-3],"split_indices":[0,0,0,0,0],"split_type":[0,0,0,0,0],"sum_hessian":[4.6478753E0,1.2910955E0,3.35678E0,2.2490618E0,1.1077181E0],"tree_param":{"num_deleted":"0","num_feature":"6","num_nodes":"5","size_leaf_vector":"1"}},{"base_weights":[-5.4147514E-4,-3.4528743E-2,5.113955E-2,4.220109E-2,-2.9445536E-2,-1.2787054E-2,-9.770825E-4],"categories":[],"categories_nodes":[],"categories_segments":[],"categories_sizes":[],"default_left":[0,0,0,0,0,0,0],"id":92,"left_children":[1,-1,3,-1,5,-1,-1],"loss_changes":[3.9422832E-2,0E0,3.730148E-2,0E0,9.813262E-4,0E0,0E0],"parents":[2147483647,0,0,2,2,4,4],"right_children":[2,-1,4,-1,6,-1,-1],"split_conditions":[6.388889E-1,-3.4528743E-2,8.974359E-1,4.220109E-2,9.259259E-1,-1.2787054E-2,-9.770825E-4],"split_indices":[0,0,2,0,2,0,0],"split_type":[0,0,0,0,0,0,0],"sum_hessian":[4.6647415E0,1.0687486E0,3.5959928E0,1.3502456E0,2.245747E0,1.0764982E0,1.169249E0],"tree_param":{"num_deleted":"0","num_feature":"6","num_nodes":"7","size_leaf_vector":"1"}},{"base_weights":[-1.5557741E-3,-6.6887334E-2,2.7045567E-2,-6.843427E-2,2.3436159E-2],"categories":[],"categories_nodes":[],"categories_segments":[],"categories_sizes":[],"default_left":[0,0,0,0,0],"id":93,"left_children":[1,3,-1,-1,-1],"loss_changes":[3.9842624E-2,1.0829243E-1,0E0,0E0,0E0],"parents":[2147483647,0,0,1,1],"right_children":[2,4,-1,-1,-1],"split_conditions":[9.3333334E-1,8.333333E-1,2.7045567E-2,-6.843427E-2,2.3436159E-2],"split_indices":[2,0,0,0,0],"split_type":[0,0,0,0,0],"sum_hessian":[4.6435194E0,2.8697712E0,1.7737483E0,1.087509E0,1.7822622E0],"tree_param":{"num_deleted":"0","num_feature":"6","num_nodes":"5","size_leaf_vector":"1"}},{"base_weights":[-4.592952E-3,3.301091E-2,-6.3793354E-2,-2.3955956E-2,-2.5925739E-3],"categories":[],"categories_nodes":[],"categories_segments":[],"categories_sizes":[],"default_left":[0,0,0,0,0],"id":94,"left_children":[1,-1,3,-1,-1],"loss_changes":[4.497274E-2,0E0,3.1371936E-3,0E0,0E0],"parents":[2147483647,0,0,2,2],"right_children":[2,-1,4,-1,-1],"split_conditions":[6.507937E-1,3.301091E-2,8.666667E-1,-2.3955956E-2,-2.5925739E-3],"split_indices":[0,0,0,0,0],"split_type":[0,0,0,0,0],"sum_hessian":[4.5927763E0,1.2716943E0,3.321082E0,2.22522E0,1.0958622E0],"tree_param":{"num_deleted":"0","num_feature":"6","num_nodes":"5","size_leaf_vector":"1"}},{"base_weights":[-2.131716E-3,-3.2683376E-2,4.633561E-2,3.9731428E-2,-2.9852597E-2,-1.1307718E-2,-2.569162E-3],"categories":[],"categories_nodes":[],"categories_segments":[],"categories_sizes":[],"default_left":[0,0,0,0,0,0,0],"id":95,"left_children":[1,-1,3,-1,5,-1,-1],"loss_changes":[3.4109157E-2,0E0,3.3887032E-2,0E0,2.1745055E-4,0E0,0E0],"parents":[2147483647,0,0,2,2,4,4],"right_children":[2,-1,4,-1,6,-1,-1],"split_conditions":[6.388889E-1,-3.2683376E-2,8.974359E-1,3.9731428E-2,9.259259E-1,-1.1307718E-2,-2.569162E-3],"split_indices":[0,0,2,0,2,0,0],"split_type":[0,0,0,0,0,0,0],"sum_hessian":[4.613582E0,1.0505574E0,3.563025E0,1.326081E0,2.236944E0,1.0717336E0,1.1652104E0],"tree_param":{"num_deleted":"0","num_feature":"6","num_nodes":"7","size_leaf_vector":"1"}},{"base_weights":[-2.8021792E-3,3.064228E-2,-5.722311E-2,-2.202556E-2,-2.15371E-3],"categories":[],"categories_nodes":[],"categories_segments":[],"categories_sizes":[],"default_left":[0,0,0,0,0],"id":96,"left_children":[1,-1,3,-1,-1],"loss_changes":[3.7794337E-2,0E0,2.978133E-3,0E0,0E0],"parents":[2147483647,0,0,2,2],"right_children":[2,-1,4,-1,-1],"split_conditions":[6.507937E-1,3.064228E-2,9.259259E-1,-2.202556E-2,-2.15371E-3],"split_indices":[0,0,2,0,0],"split_type":[0,0,0,0,0],"sum_hessian":[4.5942817E0,1.2694527E0,3.324829E0,2.1590376E0,1.1657915E0],"tree_param":{"num_deleted":"0","num_feature":"6","num_nodes":"5","size_leaf_vector":"1"}},{"base_weights":[-8.6380745E-4,-3.2394648E-2,4.7378365E-2,3.505365E-2,-5.120539E-3],"categories":[],"categories_nodes":[],"categories_segments":[],"categories_sizes":[],"default_left":[0,0,0,0,0],"id":97,"left_children":[1,-1,3,-1,-1],"loss_changes":[3.4140155E-2,0E0,2.2442983E-2,0E0,0E0],"parents":[2147483647,0,0,2,2],"right_children":[2,-1,4,-1,-1],"split_conditions":[6.388889E-1,-3.2394648E-2,8.974359E-1,3.505365E-2,-5.120539E-3],"split_indices":[0,0,2,0,0],"split_type":[0,0,0,0,0],"sum_hessian":[4.616536E0,1.0489907E0,3.5675454E0,1.3256148E0,2.2419307E0],"tree_param":{"num_deleted":"0","num_feature":"6","num_nodes":"5","size_leaf_vector":"1"}},{"base_weights":[-1.1271406E-3,-6.280458E-2,2.516496E-2,-6.543296E-2,2.2253253E-2],"categories":[],"categories_nodes":[],"categories_segments":[],"categories_sizes":[],"default_left":[0,0,0,0,0],"id":98,"left_children":[1,3,-1,-1,-1],"loss_changes":[3.461319E-2,9.734656E-2,0E0,0E0,0E0],"parents":[2147483647,0,0,1,1],"right_children":[2,4,-1,-1,-1],"split_conditions":[9.3333334E-1,8.333333E-1,2.516496E-2,-6.543296E-2,2.2253253E-2],"split_indices":[2,0,0,0,0],"split_type":[0,0,0,0,0],"sum_hessian":[4.5967402E0,2.8153417E0,1.7813988E0,1.0418638E0,1.7734778E0],"tree_param":{"num_deleted":"0","num_feature":"6","num_nodes":"5","size_leaf_vector":"1"}},{"base_weights":[-4.28745E-3,3.2483134E-2,-6.2318467E-2,-2.2141865E-2,-5.0472463E-3],"categories":[],"categories_nodes":[],"categories_segments":[],"categories_sizes":[],"default_left":[0,0,0,0,0],"id":99,"left_children":[1,-1,3,-1,-1],"loss_changes":[4.3010633E-2,0E0,1.0043588E-3,0E0,0E0],"parents":[2147483647,0,0,2,2],"right_children":[2,-1,4,-1,-1],"split_conditions":[6.507937E-1,3.2483134E-2,9.259259E-1,-2.2141865E-2,-5.0472463E-3],"split_indices":[0,0,2,0,0],"split_type":[0,0,0,0,0],"sum_hessian":[4.5513864E0,1.2536988E0,3.2976875E0,2.136008E0,1.1616795E0],"tree_param":{"num_deleted":"0","num_feature":"6","num_nodes":"5","size_leaf_vector":"1"}}]},"name":"gbtree"},"learner_model_param":{"base_score":"3.236951E-1","boost_from_average":"1","num_class":"0","num_feature":"6","num_target":"1"},"objective":{"name":"binary:logistic","reg_loss_param":{"scale_pos_weight":"1"}}},"version":[2,0,3]}